26 64
y -0.20190991 -0.13168935 -0.12403955 -0.013642869 -0.045237307 -0.16650096 -0.059360832 0.2519535 0.43168804 0.2639143 -0.040841933 0.16227554 0.25670615 0.18423906 0.1688589 -0.09505718 -0.12554206 0.077265486 0.018965952 0.08855348 0.24683565 0.0932212 0.024542117 -0.12849085 0.17178342 0.06914786 0.12500393 -0.15009919 0.13002804 0.13553083 0.104765885 -0.10675954 -0.103774264 0.17026287 -0.09434272 0.04605806 0.012829243 -0.1669759 0.057823945 0.1456195 -0.30241838 -0.18838134 -0.1669035 0.36358976 -0.077915505 -0.17952487 0.03380515 -0.040064357 -0.14911158 -0.22591016 -0.22895509 -0.13013072 0.08464748 -0.04417386 -0.3508483 -0.24069971 -0.080700055 0.11831477 0.10452514 0.11125261 0.029374557 -0.03891152 -0.07152102 -0.24850357
h -0.2057972 -0.12853953 -0.11780516 -0.0061587496 -0.05615257 -0.17465517 -0.06696501 0.25177017 0.42656544 0.2552451 -0.036070745 0.17169817 0.26068455 0.17861605 0.16324304 -0.08543288 -0.12728073 0.078974076 0.0057913745 0.086126 0.24742846 0.09862519 0.028153086 -0.12866637 0.16617487 0.07147428 0.12349579 -0.15917452 0.12879348 0.13938302 0.112242274 -0.10450733 -0.09083934 0.17262878 -0.09371585 0.055070892 0.012166534 -0.17376159 0.058780115 0.14757237 -0.2976727 -0.17984453 -0.16725439 0.35837418 -0.080121994 -0.17020687 0.032333437 -0.042452548 -0.14213774 -0.22266452 -0.22771911 -0.1312283 0.0717301 -0.04286556 -0.3557003 -0.23412244 -0.08883966 0.11309909 0.10949466 0.10599592 0.025023993 -0.043843128 -0.06743179 -0.2564132
v -0.21032035 -0.123224966 -0.11450846 -0.01297386 -0.047789574 -0.17724843 -0.056080315 0.24963467 0.42664438 0.26231194 -0.03963078 0.16707209 0.253601 0.1831159 0.17564954 -0.09651682 -0.12540647 0.08875045 0.0071834903 0.0899446 0.23706406 0.100843124 0.031517785 -0.12958129 0.17131396 0.07914019 0.13730973 -0.15347108 0.13557932 0.12874208 0.102461904 -0.111395225 -0.098723754 0.16663031 -0.086153105 0.051849194 0.0220498 -0.1704703 0.057805408 0.15076458 -0.29986632 -0.18447089 -0.15797831 0.3456735 -0.07023122 -0.17752787 0.0394805 -0.036800556 -0.14597347 -0.2227648 -0.22293884 -0.11667868 0.079486966 -0.039436486 -0.35072026 -0.22887087 -0.07802408 0.11857779 0.10271327 0.10113419 0.01776425 -0.049068272 -0.07254814 -0.24685176
i -0.20830983 -0.11834451 -0.12587734 -0.004487046 -0.053078417 -0.1743355 -0.061399963 0.25207222 0.42079684 0.25126114 -0.033221077 0.16799584 0.259493 0.17786652 0.16213241 -0.086192615 -0.12506695 0.08745335 0.012532176 0.091046475 0.24342126 0.10151334 0.0337826 -0.123380296 0.16922355 0.079182886 0.12767577 -0.15201402 0.13191225 0.12945165 0.109723575 -0.10825046 -0.09743943 0.15749453 -0.080888554 0.04687077 0.015982365 -0.17243627 0.05777033 0.14643747 -0.29332274 -0.18560578 -0.1534617 0.34488124 -0.08011388 -0.1718364 0.03389647 -0.04062171 -0.1435876 -0.2246284 -0.22409537 -0.12422179 0.08025508 -0.03553887 -0.34714532 -0.23406368 -0.08785701 0.122906424 0.09191667 0.09799211 0.027372606 -0.035883967 -0.071775965 -0.25143638
k -0.20502383 -0.118743606 -0.12372354 -0.0068049403 -0.04189728 -0.17587484 -0.06521329 0.24796861 0.42338738 0.2569012 -0.04168924 0.1663924 0.25922602 0.17893553 0.1724369 -0.08774298 -0.122783616 0.090017244 0.018498117 0.0984576 0.23928519 0.0883086 0.02811061 -0.12911595 0.15494424 0.06793403 0.13471045 -0.15451153 0.1291668 0.13380198 0.10833671 -0.1102571 -0.09158166 0.16026947 -0.091370076 0.051810414 0.010476509 -0.17006905 0.054416392 0.14420825 -0.29498622 -0.18753827 -0.16660762 0.35319895 -0.0800985 -0.17274724 0.037640423 -0.041874066 -0.14690615 -0.22788832 -0.22675346 -0.1261536 0.075004555 -0.046613406 -0.340476 -0.23573732 -0.089870915 0.124564305 0.10768318 0.11199852 0.028587064 -0.04246414 -0.075815834 -0.24651287
j -0.20824355 -0.12572849 -0.12360866 0.0026460304 -0.052327465 -0.17622139 -0.05653282 0.2557873 0.42098364 0.24946907 -0.033709574 0.16960472 0.2566997 0.17375107 0.1723357 -0.08778828 -0.127696 0.08639043 0.009340946 0.08956058 0.24401662 0.09502748 0.020213027 -0.12715289 0.16191499 0.07417528 0.13150997 -0.14663644 0.13304587 0.13030908 0.1109063 -0.111723505 -0.09332019 0.16534892 -0.08849023 0.055411693 0.012952591 -0.1652159 0.06599377 0.13979179 -0.29957256 -0.17947239 -0.1650411 0.35454103 -0.074901834 -0.17789249 0.028111568 -0.033999953 -0.14115521 -0.22899579 -0.22046112 -0.11897257 0.084794104 -0.044267606 -0.35239106 -0.23841357 -0.0923986 0.1213708 0.105634354 0.11158761 0.017626824 -0.034522586 -0.076032236 -0.25626922
l -0.2122062 -0.1311941 -0.12670939 -0.005230144 -0.043142777 -0.17572734 -0.057313852 0.2513542 0.42411897 0.25791004 -0.037138205 0.1641194 0.2533507 0.17214087 0.17377813 -0.09738033 -0.12318393 0.07896379 0.011059045 0.08936307 0.24649128 0.09073021 0.028170772 -0.12955071 0.1713023 0.07018145 0.13443296 -0.14594212 0.13173893 0.13010146 0.103021435 -0.10640714 -0.09710465 0.15938139 -0.08849887 0.044419225 0.009460339 -0.17136611 0.061658703 0.14660831 -0.29276124 -0.18899713 -0.15697832 0.3534456 -0.08034342 -0.17917715 0.032565594 -0.041094173 -0.13757262 -0.22303647 -0.22231269 -0.1285295 0.081246436 -0.0478363 -0.35437483 -0.23261748 -0.09123409 0.1176844 0.09410506 0.105348304 0.016736638 -0.047097243 -0.06699073 -0.24815123
q -0.21056671 -0.12110536 -0.11601696 -0.008654325 -0.052322894 -0.17853196 -0.06548449 0.25320154 0.43126154 0.25078553 -0.043657213 0.15841947 0.26396364 0.18098995 0.17735162 -0.09809938 -0.12806001 0.08392616 0.007856518 0.09105949 0.25245914 0.103129104 0.021798136 -0.12737313 0.16696292 0.077035114 0.13562733 -0.1563194 0.13201296 0.13080314 0.104850285 -0.10395307 -0.0985377 0.16819663 -0.095133655 0.049726356 0.015095289 -0.17257372 0.059884746 0.14498886 -0.28943548 -0.19001819 -0.15900189 0.349104 -0.068882965 -0.17729856 0.033907216 -0.031850334 -0.14201894 -0.22838856 -0.21591154 -0.11927657 0.07895488 -0.048197597 -0.34610865 -0.22658764 -0.085215166 0.11966398 0.10755995 0.11111364 0.021871166 -0.038320076 -0.078150265 -0.2481
n -0.20263855 -0.124005236 -0.120764375 0.0013554042 -0.04840581 -0.16552013 -0.06860526 0.25906694 0.43063563 0.26271066 -0.039813764 0.16759343 0.25852892 0.17809434 0.17593491 -0.09672559 -0.12411201 0.079745926 0.00993267 0.09763196 0.23826297 0.100777596 0.021048866 -0.12546086 0.16397418 0.0761562 0.13034752 -0.15679277 0.13498802 0.13267092 0.10343787 -0.101546995 -0.09159647 0.16080478 -0.08570701 0.052676927 0.018034082 -0.16623065 0.0632478 0.15041481 -0.2878014 -0.18842807 -0.16063711 0.36266536 -0.06667901 -0.1793459 0.028188525 -0.032812726 -0.13644636 -0.22354043 -0.22164933 -0.12261994 0.079328395 -0.046725012 -0.35552573 -0.24010573 -0.07928732 0.11964794 0.10426115 0.0993491 0.022308316 -0.036166597 -0.065996654 -0.2509113
o -0.20918974 -0.12376562 -0.12510729 -0.011298918 -0.052741386 -0.1601647 -0.05957719 0.255199 0.42474377 0.24497458 -0.032042295 0.16695777 0.2584101 0.17964573 0.1631951 -0.084755026 -0.12635526 0.086764105 0.014961057 0.10016637 0.24007516 0.08860505 0.030469665 -0.12520522 0.15601447 0.076352775 0.13161445 -0.15544593 0.13587144 0.12669304 0.11169877 -0.09888269 -0.09035557 0.16561815 -0.08369067 0.05349862 0.00673578 -0.17491107 0.06319107 0.14360811 -0.2927889 -0.17868252 -0.16384128 0.3593431 -0.0796814 -0.17687574 0.02968277 -0.035129894 -0.14418942 -0.22359204 -0.21526937 -0.133008 0.07050093 -0.050675485 -0.3522483 -0.22955386 -0.07801593 0.11737178 0.106993385 0.105957374 0.015700411 -0.038183436 -0.07265593 -0.2550827
b -0.21300219 -0.12995169 -0.12131355 -0.0061733825 -0.053648833 -0.1689937 -0.05521569 0.253335 0.42813012 0.25546896 -0.03715817 0.16282593 0.2603238 0.17258552 0.16681907 -0.0982562 -0.124816865 0.08559686 0.015271756 0.10034857 0.24201807 0.09013481 0.034236457 -0.12832198 0.16389044 0.07355153 0.12626894 -0.15802456 0.1377337 0.12894952 0.11262292 -0.100497685 -0.10315343 0.16958235 -0.09359971 0.054864973 0.01534031 -0.16164432 0.06277545 0.14993982 -0.2899787 -0.1865842 -0.16879778 0.3521238 -0.067730814 -0.1760794 0.03893673 -0.04268009 -0.14287502 -0.22525623 -0.22117415 -0.12936215 0.0763616 -0.045352936 -0.35208353 -0.22886565 -0.088380985 0.11110199 0.10754644 0.1004919 0.015297 -0.04539318 -0.07642981 -0.2508415
g -0.20058319 -0.12914357 -0.12768961 -0.0032744799 -0.053107295 -0.17800921 -0.05986717 0.24988586 0.43424526 0.26281995 -0.04325005 0.1679317 0.25845185 0.17719509 0.17765206 -0.08817832 -0.11936172 0.08609849 0.01073509 0.08813187 0.24873051 0.10478599 0.0351998 -0.12875031 0.16276029 0.07166264 0.13613778 -0.14491473 0.1286839 0.13195947 0.11531869 -0.11272746 -0.10082808 0.16833523 -0.087556265 0.04830333 0.016878946 -0.17630653 0.06077532 0.15110514 -0.2915891 -0.18333936 -0.15697283 0.36133736 -0.06756243 -0.18376037 0.038581174 -0.041868817 -0.136389 -0.22729166 -0.22851853 -0.121264294 0.07188956 -0.048945174 -0.3558867 -0.23351318 -0.08734868 0.12300003 0.09679861 0.09886227 0.018421303 -0.044328343 -0.07813955 -0.24837188
t -0.21133707 -0.1274193 -0.12701027 -0.013143196 -0.05659137 -0.17178993 -0.059741363 0.25540924 0.43101275 0.2558585 -0.046946634 0.16294561 0.25647974 0.18498786 0.1751943 -0.08810926 -0.13172193 0.08586808 0.012802546 0.08913018 0.2390826 0.1003647 0.028672481 -0.12197848 0.16817543 0.07995357 0.1299279 -0.16037448 0.13401613 0.13441348 0.102188975 -0.109086454 -0.09637727 0.1597764 -0.09139193 0.055878278 0.021850321 -0.16872793 0.05631352 0.14040755 -0.29612747 -0.19075796 -0.16014855 0.3571749 -0.072472855 -0.18153378 0.03652572 -0.042403895 -0.14781266 -0.2324776 -0.21775737 -0.119016856 0.07375291 -0.04342867 -0.35542303 -0.22782329 -0.082330376 0.11364215 0.110940695 0.10095802 0.022904452 -0.042892545 -0.07973564 -0.2575605
s -0.21283296 -0.12504481 -0.1183533 -0.010912651 -0.04958984 -0.16863368 -0.06309564 0.24300031 0.42306113 0.26256523 -0.04175195 0.167814 0.2560543 0.17274588 0.16968927 -0.08713834 -0.12573369 0.08917534 0.017327605 0.09452443 0.24980989 0.10202952 0.022107475 -0.117560096 0.1625389 0.06805488 0.13445044 -0.15885013 0.13406435 0.1295415 0.101993404 -0.106873736 -0.10090472 0.15577391 -0.091959834 0.05638953 0.019938488 -0.16464117 0.06305831 0.14497879 -0.29914236 -0.18344635 -0.16652128 0.3458478 -0.07606515 -0.17086303 0.027553875 -0.039211515 -0.14498611 -0.22240904 -0.22118507 -0.123066746 0.077371724 -0.048859295 -0.35626918 -0.23548262 -0.091013566 0.114464365 0.10789919 0.10516295 0.023001479 -0.047417372 -0.07897328 -0.24974564
u -0.21157083 -0.13224082 -0.12836732 -0.0017467649 -0.047840826 -0.17732567 -0.05963855 0.25627628 0.42590532 0.26165298 -0.04512911 0.16510867 0.25102288 0.17827572 0.16621245 -0.090668745 -0.12335296 0.08583903 0.012982315 0.100697905 0.24752744 0.10436937 0.023537477 -0.12704015 0.16587679 0.08086898 0.1282005 -0.14485176 0.12709503 0.12766658 0.09937923 -0.10851253 -0.1013668 0.16374214 -0.08199165 0.055399593 0.011543497 -0.16489607 0.056633927 0.13966422 -0.29801467 -0.18319891 -0.16307019 0.357962 -0.069342375 -0.17767087 0.032465704 -0.031193452 -0.14143433 -0.2281528 -0.22062378 -0.12159227 0.081096604 -0.049815338 -0.34516457 -0.22518304 -0.08421359 0.11928835 0.09520635 0.101926975 0.019295542 -0.049280755 -0.07392069 -0.25594014
f -0.20736465 -0.13097028 -0.12840721 -0.006934295 -0.057179186 -0.17736962 -0.06522888 0.25941172 0.42138484 0.25638622 -0.040701147 0.17157023 0.2523279 0.18002926 0.17754677 -0.08664358 -0.13179038 0.09144172 0.017212115 0.09923079 0.23971698 0.090714306 0.02721522 -0.12067288 0.16072851 0.08252131 0.13287535 -0.1456807 0.1373383 0.12725268 0.10839558 -0.11007118 -0.10351509 0.16558467 -0.08862961 0.05989244 0.019431086 -0.1684914 0.06831216 0.14892437 -0.29836428 -0.18809237 -0.16948412 0.35937008 -0.0758027 -0.1765683 0.03539187 -0.03143792 -0.1409538 -0.22962523 -0.22757202 -0.12597947 0.085688576 -0.04008626 -0.34674814 -0.23783751 -0.09271809 0.1216578 0.09642801 0.110947266 0.02995411 -0.04852154 -0.06994682 -0.2558808
d -0.20849654 -0.13378912 -0.1177 -0.009470724 -0.043661803 -0.17664425 -0.066378385 0.24931403 0.4227531 0.25491711 -0.03826966 0.16299061 0.25388587 0.17544676 0.17030479 -0.09895878 -0.12801664 0.0919496 0.006220856 0.08669243 0.24784468 0.103584215 0.031948846 -0.12549397 0.15813132 0.073919356 0.13254474 -0.14535384 0.13449922 0.13621499 0.1028375 -0.1004332 -0.10412201 0.16933276 -0.08507947 0.049069934 0.012777405 -0.17616647 0.060528476 0.15416099 -0.29448676 -0.19278683 -0.1656262 0.36155307 -0.07949866 -0.17025869 0.038474716 -0.046953443 -0.13400973 -0.22263624 -0.23031028 -0.13302559 0.07848551 -0.03574409 -0.3566918 -0.23671177 -0.08089644 0.12340817 0.10141586 0.10298713 0.020744933 -0.04304676 -0.06916748 -0.24536568
x -0.20768559 -0.12523012 -0.11986369 -0.005115706 -0.05437487 -0.16402853 -0.057139523 0.25418693 0.42306802 0.2523065 -0.03651464 0.15807247 0.25798753 0.16936551 0.16681382 -0.098537065 -0.1211255 0.0800859 0.005900883 0.10306658 0.24739766 0.09413991 0.033290304 -0.12550932 0.16099788 0.077865206 0.12370955 -0.15578258 0.14012459 0.12897004 0.11125037 -0.10652456 -0.09808832 0.1584839 -0.07960858 0.049437627 0.011481846 -0.17095657 0.06693811 0.13920136 -0.29479134 -0.18858536 -0.1687629 0.35837743 -0.07975048 -0.17967609 0.039095383 -0.041704427 -0.14588992 -0.22178347 -0.22849458 -0.1338279 0.07760775 -0.040586956 -0.34344888 -0.22905928 -0.08089497 0.11190374 0.10532899 0.112146996 0.027124276 -0.046598073 -0.07327278 -0.25685036
e -0.20601629 -0.1276449 -0.11888668 -0.012605944 -0.048077624 -0.16556506 -0.05455372 0.25621793 0.42126295 0.25995323 -0.041237365 0.16132143 0.25855556 0.1680168 0.1664422 -0.09094974 -0.123169616 0.0783387 0.015786327 0.09881409 0.2351676 0.09210247 0.03258462 -0.12172642 0.16468762 0.07850786 0.13217995 -0.15027414 0.13783345 0.13363846 0.10029456 -0.09948642 -0.09215175 0.15978436 -0.080675274 0.04744833 0.007649489 -0.17355898 0.061053503 0.14080164 -0.2858396 -0.17920965 -0.16351981 0.35621896 -0.0666156 -0.17842962 0.026069563 -0.042174444 -0.13997571 -0.21703963 -0.22247331 -0.12385516 0.076408155 -0.046252765 -0.35439235 -0.23796535 -0.08544291 0.122708976 0.0959476 0.108479 0.021684831 -0.037732128 -0.0731259 -0.24653453
a -0.20675215 -0.1282627 -0.1229071 -0.0067238137 -0.04656973 -0.17249987 -0.053374894 0.25388223 0.41772202 0.26034424 -0.046872973 0.15825917 0.25693962 0.16713175 0.17178933 -0.09818397 -0.13157308 0.09073669 0.014797245 0.09920711 0.2451529 0.097998135 0.035079945 -0.12774049 0.16781937 0.081306875 0.13708147 -0.15417804 0.12691052 0.1359846 0.11233106 -0.100410566 -0.08916247 0.16750114 -0.09420555 0.04526124 0.018131347 -0.1741265 0.063909836 0.1441681 -0.2992583 -0.19075412 -0.16449516 0.3576557 -0.073974885 -0.16687953 0.0334849 -0.033478305 -0.14421672 -0.22969715 -0.22417192 -0.12305418 0.08181853 -0.03643094 -0.3507222 -0.23206793 -0.08187021 0.11954891 0.101376556 0.112104625 0.02003359 -0.039141685 -0.07196512 -0.2543916
r -0.20764965 -0.118465446 -0.11569036 -0.0039820145 -0.04544611 -0.17209178 -0.064825036 0.25404894 0.42316937 0.25332773 -0.048837584 0.17233902 0.2537593 0.17875351 0.17080824 -0.08811717 -0.13431817 0.08754084 0.011345422 0.092537925 0.25063086 0.104070835 0.021706847 -0.12111954 0.16676617 0.07765341 0.1329657 -0.14616038 0.13496765 0.12904128 0.10424699 -0.11406998 -0.10397086 0.16583318 -0.09005322 0.057338953 0.01890271 -0.16592439 0.061745044 0.14294672 -0.29691097 -0.18702371 -0.15911442 0.35493332 -0.06990221 -0.17402309 0.03192131 -0.043950923 -0.13374868 -0.2265825 -0.2220978 -0.12771182 0.080211736 -0.044440124 -0.3552449 -0.23257789 -0.087484844 0.12259829 0.10702845 0.11165865 0.02215019 -0.038943194 -0.07246586 -0.24983498
c -0.20737387 -0.11980262 -0.12398429 -0.0058725225 -0.04778812 -0.16901283 -0.06823045 0.2565039 0.42692667 0.25291622 -0.03562053 0.16715074 0.25209814 0.1716082 0.17366277 -0.09342244 -0.12269997 0.083142914 0.013346456 0.08758001 0.25026366 0.09869162 0.03640253 -0.12311461 0.16338061 0.07528971 0.12651198 -0.14905429 0.12990288 0.12888375 0.11494103 -0.10385173 -0.0915887 0.16710177 -0.09264962 0.052252416 0.009534014 -0.17005724 0.069710016 0.14914936 -0.30010855 -0.18182792 -0.16492167 0.35230142 -0.07167429 -0.17063497 0.024861788 -0.038939428 -0.1447451 -0.21657282 -0.22253482 -0.13049361 0.07339409 -0.042416893 -0.3541715 -0.24228011 -0.08889545 0.12521665 0.101471424 0.10815947 0.01969958 -0.04295449 -0.074683145 -0.25937563
w -0.21053028 -0.1317401 -0.11980196 0.002235324 -0.052763715 -0.16929986 -0.059628673 0.250763 0.4183839 0.25731987 -0.034843065 0.1690047 0.262636 0.17571542 0.16730158 -0.09646275 -0.12910049 0.087810844 0.008966671 0.09838655 0.24901517 0.09877002 0.025808966 -0.119323604 0.16998637 0.06977393 0.13505574 -0.14374638 0.13468303 0.13372023 0.110340096 -0.114272125 -0.09970242 0.15875544 -0.0909666 0.055931818 0.008005101 -0.17561652 0.0674814 0.15216297 -0.2971919 -0.181539 -0.16415839 0.35988215 -0.07868692 -0.181472 0.039094303 -0.04233314 -0.14268182 -0.22590277 -0.21818422 -0.12858348 0.08526107 -0.04640843 -0.34498867 -0.24016073 -0.0844568 0.123036504 0.09712306 0.106591396 0.017096022 -0.044369247 -0.07536631 -0.2541243
z -0.20396459 -0.12825666 -0.12578368 0.002076002 -0.055016592 -0.17585786 -0.06444318 0.25156537 0.4213687 0.26330248 -0.043446675 0.16243961 0.26388803 0.17104265 0.1613385 -0.092563815 -0.12956601 0.08375001 0.011167269 0.09688491 0.25205985 0.09786511 0.033058695 -0.12924567 0.17000291 0.07800843 0.12447781 -0.14436148 0.12754287 0.13013181 0.099270545 -0.10896663 -0.094936796 0.16829294 -0.08780257 0.0456351 0.020974502 -0.16914205 0.062050313 0.14919911 -0.28823996 -0.18862121 -0.16241598 0.35188597 -0.07682966 -0.18052453 0.029359862 -0.034208942 -0.14712238 -0.22948201 -0.22101593 -0.1320828 0.07947694 -0.039513543 -0.35549247 -0.23821047 -0.082410015 0.12675008 0.09554369 0.110712975 0.027903434 -0.043599926 -0.07388864 -0.2457356
m -0.1970245 -0.1196007 -0.119572334 0.00022506714 -0.05034834 -0.16368529 -0.06509364 0.24070914 0.41711766 0.25964195 -0.04038259 0.15942898 0.25806233 0.17726967 0.17342803 -0.084054075 -0.12682234 0.09050773 0.019665623 0.091163374 0.2433041 0.098533794 0.025184747 -0.11907353 0.17026214 0.081071675 0.13547863 -0.15132388 0.13840806 0.124588095 0.10845562 -0.098111436 -0.10287061 0.15560782 -0.0875823 0.058185313 0.006314608 -0.16992946 0.064626224 0.14976375 -0.28694826 -0.1896988 -0.16500159 0.3536762 -0.06879981 -0.1704769 0.033736672 -0.038643546 -0.14054091 -0.22654943 -0.22491673 -0.12429605 0.07950042 -0.043154895 -0.3526669 -0.23684573 -0.09078619 0.12227698 0.106579676 0.09700038 0.02932626 -0.0436866 -0.07807053 -0.24129516
p -0.20543496 -0.13088815 -0.116736084 -0.0074179624 -0.0439359 -0.1638496 -0.065192565 0.24504757 0.42920685 0.25119734 -0.044878323 0.16826643 0.25732058 0.1786808 0.16904597 -0.089805044 -0.13284609 0.08181384 0.016862988 0.09575091 0.2437793 0.09690364 0.037533425 -0.11724725 0.16643324 0.06964722 0.12797956 -0.15792033 0.13456635 0.12652606 0.10821236 -0.10101901 -0.089251675 0.17120521 -0.08896769 0.05650558 0.0073116673 -0.16976237 0.05913689 0.14460865 -0.2931112 -0.17877465 -0.16285582 0.35790205 -0.07835667 -0.17981803 0.026836082 -0.0351303 -0.143478 -0.22203627 -0.22266772 -0.11975847 0.08077825 -0.04375039 -0.3465915 -0.24042569 -0.08777015 0.121432975 0.09420419 0.10584143 0.022983123 -0.047051914 -0.08042539 -0.25860387
