2213 64
， -0.001340012 -0.003005661 -0.017674109 -0.012714679 -0.009213283 9.377506e-05 -0.02188985 -0.00083684025 -0.038156506 0.008288328 -0.012480837 -0.022084057 0.005850946 -0.022743499 0.020454928 -0.046253473 -0.0046008513 0.011804138 0.00747057 -0.017072555 0.027668366 -0.01622059 -0.039871596 -0.0056403726 0.014948849 -0.0052504158 -0.019492991 -0.01758096 0.0044693192 0.0206557 -0.030834781 -0.017242175 0.0029652975 0.0047039124 -0.010807336 -0.002826895 0.0148838125 -0.0072201476 -0.016858956 0.025078854 0.00021898742 -0.02483892 0.017439084 -0.01902643 0.01077642 -0.03731991 -0.012209698 0.01087804 0.05894075 -0.024233697 0.004278821 0.04421878 -0.0043502757 0.014068158 0.005414167 -0.012880683 0.0013596213 0.051580403 0.019161902 -0.0025850893 0.019098787 0.007180193 0.021547817 0.037825096
的 -0.008018684 -0.012535065 -0.014148038 -0.017779099 -0.003438413 0.01286519 -0.011535228 -0.0054067397 -0.027138576 0.010723282 0.0018261018 -0.006140902 -0.0002896099 -0.01112203 0.013840051 -0.032177936 -0.0006328038 0.011491867 0.0002205492 -0.014896099 0.025466874 -0.012518798 -0.03282976 -0.0092052575 0.009215193 -0.0036377031 -0.013565854 -0.016714409 0.000996283 0.005382963 -0.022682644 -0.020067506 0.0011129201 -0.0054758633 -0.0043442803 0.001202649 0.003468205 0.00025636845 -0.002782059 0.015294751 -0.0049668974 -0.022803398 0.01591508 -0.008009997 0.015405293 -0.026364254 -0.0064859986 0.01932895 0.039380416 -0.01272717 0.00024286432 0.039649636 0.009243202 0.009278897 0.0060327854 -0.0041521336 0.0126519995 0.041102894 0.019301461 -0.009375358 0.016023435 -0.00014598138 0.023795592 0.03329868
。 -0.007594049 -0.00350231 -0.0020106446 0.0019677065 0.0036168243 0.00033497103 -0.0015735104 0.0017003899 -0.014471643 0.008289148 0.0022185142 -0.004150672 0.0044771256 -0.003945847 0.009737746 -0.018697131 -0.008248346 -0.0010874112 0.0075718146 -0.0028867947 0.01294667 -0.0042628963 -0.0048774113 0.0010381347 -0.0013007738 0.004455031 -0.004202659 -0.010144691 -0.0064371238 0.005153741 -0.00096662063 -0.0116198445 0.004950147 0.003560562 -0.00077226356 0.0014059353 -2.390099e-05 0.005410219 -0.01033735 -0.00068783347 -0.006192697 -0.01358687 -0.0006422433 -0.008544292 0.011594511 -0.014034387 -0.004379384 0.009970877 0.012310872 -0.009803369 0.010299012 0.020486584 0.0013350333 -0.004611158 0.011006771 -0.010160306 -0.0007220006 0.0067418963 0.006635777 -0.007871753 0.0058583366 -0.0034445098 0.00511797 0.012335718
他 -0.0028757942 -0.011326811 -0.009158365 -0.012841903 0.004971493 -0.0040733083 -0.002395174 -0.0049239006 -0.020531185 0.010200509 -0.0064192195 -0.0151244365 0.0074557457 -0.013539797 0.009244089 -0.0123147955 0.003437457 0.008649066 0.00055883045 -0.01563315 0.017891124 -0.013489745 -0.021647913 -0.0016320212 0.012255277 -0.006310696 -0.012163788 -0.015163222 -0.000787942 0.0056378176 -0.018626114 -0.005653469 0.003958526 0.0071716197 0.0033952186 0.0025122466 0.00782292 -0.0072739143 0.0033005588 0.016032558 -0.0064681815 -0.012596881 0.009481707 -0.0029616198 0.013834375 -0.017219953 -0.00038629412 0.00393481 0.023246806 -0.014000861 -0.001692631 0.013588488 0.00517995 0.011303307 0.010565536 -0.010161922 -0.0018061565 0.017068887 0.017359627 0.0022476139 0.012785992 0.0055837105 0.0056968625 0.02205561
在 0.006506119 0.0025253058 -0.0010612673 0.001295123 -0.0038436106 0.0014403388 -0.004416217 0.0010086639 -0.010790517 0.010965029 0.0020339594 -0.009561367 0.0057497807 -0.008543127 0.0020023766 -0.014256464 -0.008071117 -0.0027963757 0.0013108434 -0.0057592466 0.011626583 -0.0045511904 -0.005738572 0.005531872 0.003517569 -0.0044871327 -0.007373997 -0.0041405316 0.00588073 0.011677143 -0.013495167 -0.003458888 0.001601913 0.0077091046 -0.0060229907 -0.004275627 0.007992053 -0.002593802 -0.0011818169 0.0031135243 -0.0052038766 -0.012784882 0.0069164643 -0.006504229 0.012413146 -0.010995427 -0.005647294 0.006616141 0.019995179 -0.013649886 0.0019172374 0.011497298 0.00472427 -0.0009380801 0.010129488 -0.011881152 -0.0002967097 0.014117378 0.0026040885 -0.006257943 0.0066426843 -0.0014606571 0.015302126 0.0080241505
了 -0.00407082 -0.0052944827 -0.012126702 -0.012948429 0.0066701653 0.0040262667 -0.0065101134 -0.004534115 -0.005344416 0.009761213 0.004568012 0.0015376571 -0.0046631326 -0.011250659 0.002216003 -0.020937456 0.00262343 0.0054958616 0.0017028728 -0.0098925205 0.0059789033 -0.0017078635 -0.008199611 -0.0026150958 0.011103648 -0.004649766 -0.0067843157 -0.0095370645 0.0047350693 0.0015696577 -0.0144884335 -0.0021722796 0.0063522337 0.0020145983 0.003786527 -0.005445758 8.145139e-05 0.004468022 -0.00790321 0.0018376511 -0.0020086172 -0.004136192 0.006428688 -0.0035952686 0.0005408969 -0.0075626494 -0.004795485 0.009183925 0.02567432 -0.0119115645 0.009420836 0.01830019 -0.004410502 -0.0028501076 -0.0012604817 -0.0048962706 0.0071294806 0.0138837155 0.008720665 -0.0072423215 0.012426725 -0.0022540297 0.008946474 0.01515715
和 0.0012109806 -0.008479437 0.0016266174 -0.0036991092 -0.0073359464 0.0041519543 -0.012096869 -0.004461547 -0.010183749 -0.0007162719 -0.002395283 -0.0046055834 0.008164574 -7.06392e-05 0.0036469642 -0.016215343 0.002604701 -0.00034643567 0.0006333229 -0.004038543 0.011470617 -0.003878406 -0.015074022 0.005545568 -0.0031430179 -0.002911006 -0.0015822093 0.00011662882 0.0031879186 0.008609085 -0.012169659 -0.011548874 0.0024594308 -0.00394637 0.00047700517 0.002347369 0.0015866475 0.0024691469 -0.0032825088 -0.0012024934 -0.0059436806 -0.0031229174 -0.0014309179 -0.007066071 0.012150494 -0.013234758 0.004663998 2.7376998e-05 0.0131286 -0.0071110507 0.0049917293 0.008525341 -0.002565988 0.0016720725 0.0004933665 -0.003064028 0.004762659 0.011056087 0.0130418055 -0.0012672796 0.0065355343 0.007189173 0.0012715601 0.0140274465
、 -0.0059806746 -0.009356583 -0.010001816 0.0014127089 0.006733484 -0.005534674 -0.00916616 0.0013465642 -0.0030210002 0.0072788396 -0.0016358106 -0.0011661845 0.0042847577 0.0018244424 0.0056736213 -0.007921479 -0.007865977 0.010037128 -0.0028115604 -0.0026299576 0.011500888 0.00075931154 -0.009011277 -0.0054303934 0.0063384636 0.005125027 -0.007000878 0.001045318 -0.005591653 0.008823423 -0.009238674 0.002865705 -0.006939542 0.006347537 -0.007996324 0.0013324047 0.0032145346 -0.0047090794 0.0017225007 -0.002276518 -0.0016682912 -0.012154187 0.001442259 -0.002116965 0.0076403944 -0.014474952 -0.0003701411 0.0038232526 0.018493956 0.0032085844 -0.00073682785 0.006958604 0.00023648635 0.0038961072 -0.0016648627 -0.001951108 0.009554882 0.016476488 0.005727772 0.005185988 0.0020564825 -0.002009079 0.0016031094 0.016191352
布恩迪亚 0.0026581802 -0.0053443415 0.0015365343 0.0035094116 -0.0020755376 0.0019748348 -0.003737139 -0.007377697 -0.012423002 -0.0035789995 -0.0048785843 -0.007816707 0.006695382 -0.00070667866 0.004978376 -0.00843409 0.0014048828 0.01022395 -5.934861e-05 -0.010394485 0.0065545817 0.00075946434 -0.014155859 0.006009378 -0.0048479065 -0.0055291126 -0.00301971 0.0022287632 0.0014514112 0.008197179 -0.013957126 0.003569916 0.0021994568 -0.001094444 0.005331024 0.0011769253 0.0013894563 0.0039644106 0.0055615907 0.002791969 -0.005534597 -0.0026212137 -0.004116517 0.0052541117 0.0013174922 -0.013444158 0.0064774905 -0.00059449876 0.019493308 -0.006804216 0.0045759855 0.010248533 -0.004488408 0.008817037 0.005531736 -0.002590371 0.001179077 0.0109212715 -0.002661269 -0.0029456553 0.0067859404 -0.00093282835 -0.001307533 0.0111823855
“ 0.0067693796 0.005770555 -0.006289572 0.0006535127 -0.0056564943 0.007749529 -0.005828814 -0.0012314223 -0.005577101 -0.0007111818 -0.005763779 -0.011844978 -0.0024173118 -0.00980961 0.002054822 -0.0119892135 0.0017530177 -0.005268846 0.0009876138 0.001316552 0.009577249 0.0006461916 -0.015177063 -0.0060709207 0.004927937 -0.0031136647 -0.007123992 -0.0069189062 0.006245414 0.009630239 -0.0038501427 -0.004621222 -0.004392508 0.0015875427 -0.008455079 -0.0074814735 -0.00344377 0.00047522897 -0.0027557123 0.0056942287 -0.005820277 -0.002175711 0.01033252 -0.0062965914 0.008183425 -0.007420926 0.005170274 0.012050677 0.011111019 0.0015143987 -0.003808781 0.01850263 0.005616333 0.0038680544 0.00513211 0.0031828715 0.0059124636 0.010137091 0.0019384017 -0.003374375 0.010850888 0.0002659257 0.010424596 0.016434245
是 0.0006588245 -0.0023926217 -0.00065871223 0.0027897763 -0.004306658 -0.0056558624 -0.008958663 -0.0052185673 -0.012679283 0.0064323605 -0.0033287234 -0.010852063 -0.003958252 -0.002368646 0.008686514 -0.0007443779 -0.004806838 -0.0026222481 0.002335284 0.00095675694 0.00465883 -0.004264912 -0.006944775 0.0006265038 0.007969953 0.005461102 0.002412269 -0.0006205941 0.0032306458 -0.0015972308 -0.0059765084 -0.006915745 -0.0019857725 -0.0040713456 0.005748788 -0.006924337 -0.00523049 0.007283006 -0.004957329 0.010248476 0.0012857991 0.002389274 0.0017055803 0.0016598657 -0.0035515497 -0.013224174 0.005769848 -0.0022947646 0.01665987 0.0016102771 0.0053786943 0.0088811265 0.0003970172 -0.0056800526 0.0018130586 -0.0016557418 0.008742146 0.010284335 0.0073201475 0.004315645 -0.0024504545 0.005551144 0.008904606 0.009405883
着 -0.00456978 -0.0066354694 -0.0018659024 -0.010015008 -0.0035804485 0.00031426726 0.0021326325 -0.005069888 -0.0030508162 -0.0031233337 -0.007469586 -0.009951315 -0.0035258709 -0.005672181 0.002322617 -0.013846343 -0.007994009 0.005496232 -0.0064264834 8.7069064e-05 0.006083874 -0.00010946173 -0.012080489 -0.0025069285 -0.0024544408 0.0035522482 0.004474324 -0.008272782 -0.0017136267 0.0036467789 -0.00042981622 -0.0059459363 0.0071399445 -0.0006134368 0.0024532604 0.0049832133 -0.0024413166 -0.0066777337 0.0024758184 0.0054651625 -0.0030457044 0.0012184333 0.007093795 -0.0060727457 0.007114991 -0.008955853 0.00351802 0.00834995 0.011146842 -0.006572124 0.006731787 0.0022782423 0.005122462 0.005487619 0.0036375918 -0.008752637 0.0071542948 0.016645147 0.004865665 -0.0068520824 0.007958669 0.005423296 0.010153847 0.008120637
” 0.0038575574 0.00042615936 -0.007125987 -0.009396486 0.0035757646 -0.0030051896 -0.0022492206 0.0036969634 -0.0029383225 -0.00079775485 0.0018778937 0.0014954295 0.0055931043 -0.007209795 0.0047475086 -0.010388268 -0.0012690948 0.0073079322 0.0048191375 -0.0029573026 0.003788099 -0.0027568338 0.00094028306 0.0039286963 0.005428223 -0.0018826452 -0.007756439 -0.0016658237 0.0038689491 0.00018399167 -0.0117718605 -0.0006203789 -0.004205151 0.0006931368 -0.007315158 -0.0019139214 0.0031601638 0.005998087 -0.0055010524 0.010233139 -0.000507505 -0.0032688817 0.0072773155 -0.002172261 0.0026192057 -0.01031721 -0.0033707106 0.0035175153 0.01673348 -0.010335795 -0.0028796026 0.008362976 0.0075364546 0.00032628785 0.0017636666 -0.0007352595 -0.003751828 0.008072615 0.0047252737 -0.006187449 0.010111464 0.0064125364 0.006965071 0.004487486
就 -0.0070576877 0.0016842302 -0.0057995315 -0.00902829 -0.0070372247 -0.00030999043 -0.0053602774 -0.0048009953 -0.0061869696 0.0046257754 -0.008408943 -0.008771894 0.00018728132 -0.0045561483 -0.0020232464 -0.01769282 0.0040578023 0.0019213173 -0.0016432155 -0.0015002907 0.00506424 0.0026403286 -0.013205715 0.0022958156 0.008754278 0.002531284 0.001253827 -0.0070396285 -0.007331075 0.002296182 -0.014986377 -0.00022380258 0.00793209 -0.0042442097 -0.008970654 0.005909835 0.005992912 0.0053043687 0.00079279806 0.010907675 0.00057276944 -0.0042796843 -0.0044644363 0.0013052947 -0.0015483608 -0.0050238976 -0.006447594 0.0034928212 0.016403308 -0.0023665691 0.0030580808 0.010159888 0.0018295028 0.0010945062 0.0051363413 -0.0040743556 -0.0018455738 0.007010243 0.010642894 0.0042999103 0.010665876 0.0054373494 0.010762764 0.014391402
他们 0.003937235 -0.008774271 0.001192139 -0.006230045 0.00095359405 0.0083346 -0.0045540845 0.0023429897 -0.0057092523 0.001736783 0.005637944 -0.01126838 0.008465077 -0.0054017124 0.00037495483 -0.017449273 0.0027729303 0.007391625 0.0028922874 -0.0026675984 0.011900105 -0.007158468 -0.016582798 0.0021590707 0.002013526 -0.0034251467 0.0013840841 0.000625282 0.006118461 0.0032535673 -0.009390673 -0.0054719127 -0.0025716699 -0.0033774986 0.003959448 -0.00743201 -0.0018581239 -0.00025593993 -0.005906601 0.013254746 0.003365891 0.00018942964 0.004429331 -0.0030207818 0.0025214718 -0.0033782956 0.0035465173 0.005343879 0.019124584 0.0015201016 0.0017267475 0.016506 -0.0065845763 -0.0040267464 0.004100191 -0.002298772 -0.0029248535 0.005825107 0.0009326028 -0.00441912 0.011542322 0.00010327201 0.0007270009 0.010132381
一个 0.0037560011 -0.008983444 -0.010310187 -0.007916964 -4.8379385e-05 0.0032009352 -0.004489211 -0.0020817812 -0.009340767 0.006560391 -0.0035315133 -0.0074562444 -0.0016091559 -0.0064794067 0.008650511 -0.0014366215 0.0059403963 0.007257948 0.0027701545 -0.0019128512 -2.1684147e-05 -0.009695543 -0.0063533084 -0.0028540979 -0.003993567 0.001045181 0.0018616312 0.0046152347 0.00026913686 0.009704311 -0.012038982 -0.0075459937 0.0052514696 0.004265035 -0.008319967 0.0034768928 -0.005950227 0.0015640485 -0.008295013 0.0063142413 -0.0019023722 -0.0006713487 -0.001289732 -0.009175688 -0.00073342054 -0.00221694 0.005968287 0.0038695803 0.0044808607 -0.0051035695 -0.0023945083 0.014858445 -0.00068385544 0.009743709 0.0014329151 -0.0054889997 0.0076893643 0.0015649772 0.010531486 0.0060253902 0.003988419 -0.004041848 0.0011274618 0.0048468965
乌尔苏 -0.00578152 -0.006115641 -0.0024034719 -0.00897123 0.0063361917 0.00351329 0.0035456866 -0.006680485 -0.013192607 -0.0004200536 -0.0003683783 -0.0054502683 -0.004206449 0.0048552714 0.0061953864 -0.006483264 0.00051090575 0.0065536746 0.0012157449 -0.0016895033 0.003285508 -0.00576264 -0.0067890417 0.00564807 0.0020211989 -0.0035075971 0.004128131 -0.010232892 -0.0037741705 -0.0018231671 0.0012484259 -0.0012168164 -0.005079147 0.0004287643 0.004192178 0.0032540883 0.0085429065 -0.0053506885 0.0023063074 0.0006803358 -0.0029163586 0.0024423285 0.0053726495 -0.002926524 0.0051294668 -0.013433217 0.0019072898 0.010822331 0.013348393 0.0026376075 0.008430528 0.006354663 0.0059548346 0.008262435 -0.003850503 -0.0054928316 0.002361001 0.015685631 0.006470261 0.0063221203 -0.0013696512 -0.00027717507 0.004130122 0.006805127
梅尔 -0.0011276619 -0.0014634618 -0.0076646875 0.0049838815 -0.0012099507 -0.0031041203 -0.0015086171 -0.0023178041 -0.0011110931 0.009221898 -0.006447731 0.0004169698 0.0023434765 0.0024840166 -0.0023648653 -0.014939417 -0.007624512 -0.0020389115 0.0071182144 -0.01043001 0.012768624 -0.0073617497 -0.010420229 0.0031065615 0.0045960485 0.0006375122 -0.004874865 -0.0007444009 -0.0051276954 0.000426693 -0.012536627 0.0023086178 0.00091228174 0.00041309648 0.0019602238 0.005725411 0.004364298 0.0073005953 -0.008059594 -0.0030678194 -0.0032344416 -0.0026800446 0.0047522993 -0.007670413 0.000996267 0.0010307675 -0.0071380045 -0.0037533243 0.0076013217 -0.0028294737 0.008891959 0.010080206 0.004516626 0.0057325396 0.006790883 -0.010508866 0.004454682 0.013039748 -5.945204e-06 -0.002428751 0.0038512356 0.0048231347 0.0072771097 0.010915381
基亚 0.0066315667 -0.0035186221 -0.0093977135 -0.009450896 0.005013756 -0.007036445 -0.009278796 0.0058008675 -0.0099786315 0.005835662 0.004204908 0.0013604934 -0.0031216478 -0.0037277562 -0.0012974037 -0.0016389553 0.0042598047 -0.004666631 0.008731229 0.0023989629 0.0091382 -0.009634535 -0.005663189 0.0014734103 0.0062494646 0.006301871 -0.0054010577 -0.008063996 0.0020101697 0.0025041702 -0.014212584 0.0003410802 0.006821352 -0.006098829 -0.008830791 -0.0006676839 0.003954388 -0.008177443 0.00028970535 -0.0014814659 0.005410902 -0.009256497 0.0010231785 -0.00012089883 0.010808875 -0.00025572666 0.001444533 0.003804513 0.011861663 -0.009860438 -0.00016512192 0.004528763 0.0022616396 0.003059372 0.0008037905 0.0017439179 0.009909731 0.016865076 -0.0030583567 -0.0067364206 0.0027972048 -0.0008180776 0.0039809677 0.0124180075
德斯 -0.005672377 -0.0068105087 -0.007918641 -0.008207171 -0.0027291935 -0.003322101 -0.0044014184 0.005161118 -0.007442225 0.0012686558 -0.008258965 -0.004581546 0.0009407239 -0.005960902 0.0028819325 -0.009099723 0.0063856537 0.002275863 0.00032241657 -0.001844448 0.010506573 0.004231849 -0.003699313 0.005936766 0.004486719 -0.0027284971 -0.010471991 -0.0032466794 -0.0064921807 0.007277512 0.00024834104 0.0045653717 0.005753482 0.0047878698 0.004016949 7.5574167e-06 0.00942804 -0.0022512018 -0.0023463683 -0.003307602 0.0067144926 -0.0033987532 -0.0011478926 -0.0053146193 -0.00011895671 -0.0031638495 -0.007081619 -0.00034775469 0.012867066 0.00059928873 0.0029992424 0.013844186 0.0068603554 -0.005422104 -0.0056998027 -0.010800736 0.00206221 0.014093418 0.010535269 0.004299906 0.008543046 0.0027403072 0.0017355017 0.0053151995
吉卜赛人 -0.0023125282 0.0031422595 0.0021199035 -0.0002706348 -0.00032539922 0.006397118 0.003979497 -0.006492108 0.0009581584 0.009403455 -0.0015209693 0.0017453183 0.00089386094 0.0013194459 -0.0006263736 -0.007429215 -0.007906752 -0.00077790214 0.00126585 -0.008232101 0.005684031 -0.006863514 -0.0037073686 -0.0011745513 0.0027420013 -0.0024636989 -0.010038084 -0.006449251 0.0061338297 0.0075530047 0.0012080919 -0.0028188438 -0.004872275 -0.0021984507 -0.005949567 -0.0051255766 0.008345477 0.004531939 -0.0069346284 0.0025200597 -0.003929426 0.0016334679 -0.002176982 -0.0006795086 -0.0025021324 -0.013748158 -0.0025520755 0.008128159 0.012249384 -0.009154648 -0.0026506293 0.0059645073 0.0022215138 0.0046291165 0.008647873 -0.004100992 0.0081749 0.001987788 0.00038729594 -0.00016175162 0.009905616 0.0017448097 0.011024757 0.00088887307
拉 0.007286649 -0.00084955816 -0.01002249 -0.010870692 -0.007135863 -0.0032931906 -0.0061230343 0.004353719 -0.0115459 0.005946777 -5.4224598e-05 -0.0026369588 -0.00032054915 -0.010473806 0.008869124 -0.002971929 -0.008573872 0.0051293946 0.005906259 -0.0061625782 0.0049625863 -0.0002582207 -0.0061098137 -0.0077446937 -0.005490949 0.0006125888 -0.000437403 -0.009508941 -0.006561731 0.0056910827 -0.00024406702 -0.00949639 0.0035013212 0.0062979804 0.0028521975 -0.0013450803 -0.004756633 -0.007093707 -0.001496531 0.005706697 -0.008344776 -0.009462959 4.1668907e-05 -0.0027833218 -1.1303884e-05 -0.0012343467 -0.002707096 -0.0013813764 0.008040867 -0.0057387864 0.0057103476 0.016223105 -0.0053482824 0.00042374292 -0.003647229 -0.0029967097 -0.0049645086 0.015475071 0.0062861103 -0.0053133364 0.001169427 -0.0008275324 0.0058937278 0.0015631842
将 0.0058132266 -0.0026849222 -0.010923193 -0.002091338 -5.0680486e-05 0.0056079095 -0.009971532 -0.0019185023 -0.0018893251 0.00887278 -0.0043433565 -0.009511033 -0.005962327 -0.0077231526 0.007829518 -0.011814797 -0.0031541993 -0.001467882 0.0017496704 -0.0091927685 0.010750878 -0.006334189 -0.0035780496 0.0033460339 0.009537927 -0.0045144632 0.0018456756 -0.0010710241 0.0048934533 -0.00066057744 -0.010847833 0.0027854687 0.00260262 0.0052419635 0.00013859251 -0.004988767 0.008429011 0.005270423 0.0011669629 -0.0016283441 -0.0010908502 -0.012251278 0.005910633 -0.006932467 0.0121030165 -0.015144924 0.003648632 0.012023111 0.017098924 -0.009355446 -0.00086089835 0.0066007674 0.00050637336 -0.0009316767 0.0046194503 -0.0096623665 -0.003894973 0.0067409566 0.013229909 -0.0050329817 0.0034999435 0.0016209353 0.0035728586 0.014634084
而 0.004917794 0.0016695183 0.004824425 -0.0012235708 0.0030240898 0.0017314644 0.0008119492 -0.006111321 -0.013048214 0.00035667547 -0.006865032 -0.008568707 -0.0023732367 -0.0041066487 0.0085731 -0.012812929 0.00079558155 -0.002017497 0.0038601123 -0.0042155944 0.00043774606 -0.007059832 -0.009358288 -0.0022623395 0.0069552097 0.00034043018 0.0006134268 0.003897126 -0.0074937837 0.0010824001 0.0012644583 -0.0040018717 -0.0046898555 -0.0013668035 0.006311704 -0.0067983735 0.005926251 -0.0046822852 0.0017516225 0.009755296 0.004781909 -0.003805024 0.0051740166 -0.0033672645 -0.0016318895 -0.009132697 -0.00031091511 0.004267518 0.0058408123 -0.0035148372 0.0047491696 0.0054488415 0.004029624 0.0027928373 0.008716357 -0.0031358367 -0.0031844073 0.010162811 0.009838149 -0.002527796 -0.002777779 0.0017176198 0.010356956 0.0073931175
孩子 0.0049569695 -0.005529932 -0.0064277602 0.0012045178 -0.00279569 0.0016169188 -0.002082246 -0.0057377736 -0.0017224728 -0.0036559536 -0.00561625 -0.007132293 -0.0052779196 -0.003179395 0.000105645166 -0.0040917033 -0.00034564504 0.007591632 -0.0061046616 -0.0035670302 0.008992844 -0.009576951 -0.008335378 0.0025863107 0.004194859 0.0011694137 0.0023785708 -0.0043032276 -0.0026852144 0.0015320563 -0.010281573 -0.00674165 0.007531492 -5.521867e-05 0.005460923 0.0012669864 0.0010124479 0.0032076011 0.0005190563 0.012417322 -0.0022942352 -0.00038696793 0.0064542126 -0.008155665 0.012067233 -0.004341532 -0.005686924 0.004449724 0.019424967 -0.011026363 0.0076501314 0.016522342 0.0039395364 -0.002542545 0.010543199 -0.0023223502 -0.005870318 0.012549667 0.005560687 -0.0026907353 0.0016020065 0.00722023 0.008572687 0.015805796
都 0.004098575 -0.001943313 -0.006819551 -0.0026529601 -0.00040154823 0.005975653 -0.0098059075 0.001316241 -0.0068270736 -0.0031805213 -0.0077879773 -0.009793902 0.009236012 -0.0067687966 0.007833969 -0.0035003615 -0.0061616604 0.004032331 -0.00085741753 -0.010332538 0.00034685194 0.001237915 -0.010268508 0.0053773825 -0.00081515696 0.005388028 -0.008948867 0.0031942625 -0.0007717899 0.0027221313 -0.007113498 0.0034633365 -0.00618517 -0.0032698205 0.0031505567 0.00013725029 0.0027853502 0.0067527257 0.0051538516 0.0028414861 -0.0062200455 -0.005397374 0.0026610906 -0.007444093 0.0039186226 -0.014200463 -0.00543454 0.004172991 0.009965715 -0.009355401 -0.0011791561 0.0043635275 0.0033230067 0.007024837 0.0033039032 0.0019767368 0.0066962335 0.017154604 0.0012727714 0.0068887416 0.007743727 -0.005026061 0.0021787824 0.014699838
那 -0.0013032309 -0.0012755058 -0.0055923387 -0.008983497 -0.0054939743 -0.002319245 -0.0090824505 -0.0027102374 -0.0010203893 0.0012761066 -0.0016582223 -0.010241453 0.0066381274 0.00023091213 0.003781015 -0.010122162 -0.0015379885 0.0028399196 -0.0002058435 -0.0066859503 0.010293678 -0.009238585 -0.011590644 0.004305587 -0.0021593992 -0.0049110055 -0.0031804766 0.0040796315 0.002549167 0.001026121 -0.0026279425 -0.0020203188 0.0027465066 0.008197042 -0.0031409778 -0.0014387405 -0.003363361 -0.001889593 -0.0011587514 -0.0025034104 -0.008458057 -0.003081592 -0.003493032 -0.0066548847 0.0022390892 -0.004470651 0.003924261 -0.000994627 0.0027258757 0.0024344402 0.00900225 0.014332336 -0.0015667948 0.0030477894 0.0026478462 -0.00068005983 0.0008268706 0.0026238204 0.010160192 -0.006425414 -0.0027379305 -0.0035173493 0.0016651719 0.0147668
她 -0.0060931984 -0.0007135715 0.00034156395 -0.011950538 -0.0037009944 0.0070296424 -0.003352716 0.0057141497 -0.012537174 0.00164037 -0.0072157816 0.0008763902 0.009895876 -0.0048553636 0.0066935546 -0.014336706 -0.0030412378 0.0029503084 0.004130968 -0.009624481 0.013027396 -0.0056492076 -0.013916829 0.0058832252 0.010352167 -0.0050927415 -0.0029621248 -0.009946842 0.0075417575 0.0024789954 -0.0094800675 0.002525786 0.0014555785 -0.001279187 0.001470221 0.007084423 -0.0037764201 0.0016386257 -0.00038843212 0.008462401 -0.0054581347 -0.002518183 0.0059022713 -0.002454899 0.0031904853 -0.016281018 0.00086673256 0.0037378941 0.014425225 -0.0035398942 0.0018086742 0.011004412 0.0039778105 0.006084679 0.0047077476 -0.0095313825 0.0015193194 0.0046127765 0.010511459 0.0014853987 0.0076314844 0.0035198284 0.007872908 0.01749259
自己 -0.00757308 0.00562743 -0.005402671 -0.0025694452 -0.0027158628 -0.0038582569 -0.010976143 -0.0066186637 -0.014838533 0.00564129 -0.0077693546 0.0013567315 0.0071188984 -0.008474633 -0.0026780684 -0.0066690603 0.0012319501 -0.004932144 -0.001532048 0.0005530727 0.006397562 -0.009754417 -0.00753289 0.0022555615 -0.00044562784 0.0034750863 -0.0025063131 0.0015600064 0.0007334244 0.0052574934 -0.0077215787 -0.01154734 -0.0021277354 0.0023455217 -0.0025934603 -0.005402448 0.008883401 0.007673215 -0.0027844766 0.012141808 -0.0009110654 0.0012217511 -0.0012158456 -0.009058616 0.008554929 -0.016639147 -0.005337591 0.0061412686 0.017271835 -0.012339182 -0.004759044 0.013764895 -0.0011792498 0.0054485477 0.008700358 -0.005291869 -0.0051376317 0.01737043 -0.00052755035 -0.0046222825 0.004860383 0.0074076974 0.0033678042 0.012196211
中 -0.0073220516 0.002650083 -0.0034115503 -0.009952802 -0.007804355 -0.001461821 -0.002989362 -0.0069455206 -0.00497931 0.008823027 0.0021745274 -0.010378515 0.008184895 -0.0002731515 0.009607901 -0.013390539 -0.0033800544 0.004204353 0.00809269 -0.0025552628 0.006432318 -0.0105802985 -0.0037830689 -0.0049907803 0.0003102611 -0.00091726775 -0.009369859 -0.0012087921 0.004656304 0.0011867172 -0.01221876 -0.0014795944 0.007916741 0.0019662871 -0.0016625333 0.006143645 0.0043217037 0.0045175883 2.4271147e-05 -0.0011153932 -0.0065788366 0.00011973599 0.0063383253 -0.00943717 0.0056668404 -0.003082634 -0.0010238442 0.011873211 0.011466221 -0.0070198854 0.0072600343 0.010256011 0.008008381 -0.003947116 0.009349606 -0.009848795 0.0029705807 0.013360353 0.008942364 -0.0007243339 0.009886252 -0.0054144026 -0.002328766 0.012161192
上 -0.008351177 -0.0051919087 -0.0021031685 -0.0042867577 0.00569722 -0.0046040397 -0.0047498476 -0.008140955 -0.0015142096 0.0065152096 -0.002254442 -0.005792594 -0.0015225898 -0.008981411 -0.0026537601 -0.009171445 -0.0033317218 0.005399809 -0.0029185452 -0.011641619 0.0051817475 0.00088427623 -0.013112773 0.003674567 0.005481142 0.007370117 -0.005289643 -0.008114677 0.0051902146 0.008160291 -0.007708386 -0.00090855564 0.007754209 -0.0058944225 -0.0008868197 0.0014327808 0.0057221195 0.0034092506 -0.0022728948 0.002359608 -0.0047243144 -0.0041331258 -0.0035726998 -0.0022996443 0.01052273 -0.010222682 0.0036476797 0.0042605433 0.008235021 -0.0071749454 0.008661429 0.013877957 0.0014996865 0.00031540278 0.0091963 0.00023188295 -0.0036850742 0.013993627 0.006517216 0.0016570659 0.0031240857 0.00886798 0.009281564 0.016747247
从 -0.0013412107 0.0058806073 0.0011991604 0.0025752326 -0.003344443 -0.0029251922 -0.0059911637 0.0026064403 -0.005320822 0.0072638616 -0.0012796338 -0.0057125264 0.006169647 -0.0005845681 -0.003920648 -0.009336272 0.0045185755 0.00858817 0.0066168834 -0.010368502 0.00881761 -0.010884629 -0.0040496853 -0.008171532 0.007302288 -0.006113102 -0.0034920613 0.0031448363 0.0053624483 0.0071671773 -0.008092322 -0.0046221255 0.0062552667 -0.0027906988 -0.00571462 0.0073018023 0.009914301 0.00686284 0.0034783846 0.009138677 0.006091559 -0.010668719 0.0056813 -0.0027975638 -0.0016543033 -0.0072692484 -0.008116768 0.0060232407 0.009472665 0.0015079147 0.008629541 0.009603766 0.006646911 -0.00018327561 -0.0049582976 -0.0013081031 0.00339468 0.0043748016 -0.0025222865 0.0037724932 -5.296168e-05 0.0018294104 0.00765242 0.011875001
： 0.0012095727 -0.0020548697 -0.0078076576 0.0016810952 -0.008545623 -0.006058625 -0.004035735 -0.0013603546 -0.004074287 0.0049790624 -0.0009854103 -0.0004690064 0.007900158 0.00028331176 -0.00069704914 -0.009370344 -0.00014344913 -0.0058193402 0.0052843187 -0.0022370652 0.012796892 -0.0027043237 -0.005598906 0.0060764044 -0.003604217 0.005889954 -0.00465805 -0.0064178663 0.0070388312 -0.0035952334 -0.0058819856 -0.007479037 -0.0018577602 0.0029319488 -0.0010428826 -0.005634322 0.002896744 -0.007690595 -0.008554396 0.0058407434 8.93139e-05 0.0001840697 0.006907323 -0.003718036 0.0077167945 -0.010990201 0.0026273062 0.009923363 0.013730745 -0.001974251 0.0048389626 0.0069175917 0.0007231032 -0.003672931 0.0025848518 0.0028653312 -0.005613275 0.0019634373 0.010934353 -0.0040756105 0.01178121 0.003202485 0.011881858 0.0039116815
对 0.0036830232 -0.0016964821 -0.009738437 0.00017429452 -0.0012948922 0.0047769574 1.247702e-05 -0.00046625527 -0.010564515 0.0047405767 0.0056474013 0.005159279 -0.0018468795 -0.00058097905 0.010036334 -0.0022797557 0.00010613968 -8.0183614e-05 0.0046163118 -0.008685875 0.008189816 0.004773974 0.0025068244 0.002361929 -0.0015744697 0.002333659 0.0033714515 0.0016621535 0.0015762512 0.0018826181 -0.009278322 -0.008245228 0.0028715227 0.0079834005 0.00056620786 -0.007275658 -0.0010069516 -0.007219108 -0.008008692 0.007988835 -0.0037696215 0.0027922995 0.007732239 -0.0005532006 0.007690737 -0.007583028 -0.0055402555 0.0020193928 0.01534716 -0.0033525056 0.0021802334 0.0057483856 -0.001575733 0.0070798043 0.0024557654 -0.0056961696 0.00070403714 0.0011304306 -0.001909205 0.005810925 -0.004391322 -0.0046856324 0.0030438162 0.0017253042
们 -0.0029021425 -0.0012941811 -0.010741457 -0.0011445391 -0.0065104254 -0.0058473246 -0.0060380055 -0.0008303757 -0.008685919 -0.0041430905 0.0010556778 0.0031841875 -0.00013760244 0.0024569442 0.0041733244 -0.0057353857 -0.0049725007 0.010004542 -0.0005412779 -0.009827372 0.0003970791 -0.005308111 -0.011953841 -0.0036467698 0.0087858895 0.0015087894 -0.007975445 -0.0018759317 0.0010432453 0.006291557 -0.013168405 0.0014057381 0.0025312821 0.0009649081 0.0039495723 -0.006894801 0.004722438 -0.008208655 0.0030206516 0.0029305825 0.0062085264 -0.001729426 -0.0048623793 -0.0012259402 -0.000112315305 -0.010685867 -0.0020673634 0.00862221 0.019894926 -0.0068467287 0.0071061514 0.0042468277 -0.0027655808 0.008556474 0.008983321 -0.006874428 -0.0045251627 0.007457577 0.0127433585 -0.006867045 0.0048019593 0.0035058265 0.012090831 0.0059088888
到 -0.0036639082 -0.0041217087 -0.007959209 -0.0010913631 0.0053406036 -0.0013070751 -0.0003781013 0.0064960923 -0.003553656 -0.0023661635 0.0037632727 -0.008661065 -0.0047652856 -0.0044284053 0.00739834 -0.0058893347 -0.0038602587 0.0009221888 0.0038992644 -0.004834051 0.0066818423 0.0006824874 -0.00068280724 -0.006603248 0.0011980855 -0.0053578797 -0.0027650765 -0.0054038162 -0.0015422673 0.0052970676 -0.0029152639 -0.0072375666 -0.00089706545 0.0044670226 0.0047430545 0.0023746032 0.0026955162 -0.006118503 -0.0027956557 0.004337052 0.0034159925 0.0028359185 0.007935197 -0.0075600636 0.005030605 -0.002126642 0.003612955 0.00024342925 0.016253375 -0.008831786 0.004285896 0.009018344 -0.0037952128 0.0031431727 -0.0044292454 0.0014283657 -0.0056208493 0.015943896 -0.0025305203 0.0018789849 -0.00026960287 0.0021185332 0.009969219 0.008347489
但 -0.0066904565 -0.0023302378 -0.0011854052 -0.010901445 -0.00828552 -0.0017527739 0.003515911 -0.0011338345 -0.0017743424 0.0072480286 0.0026723922 -0.009465892 -0.005973295 -0.00392161 0.005489107 -0.0039278194 -0.0011937348 0.00048640114 0.008044074 -0.009541992 0.011877762 -0.008684236 -0.0063900696 -0.0006860059 -0.0032508376 -0.007855821 -0.002594773 -0.0067940853 -0.0032640765 0.0055370834 -0.0075187236 -0.004822834 -0.0039491514 0.003248159 0.00456974 0.0058064708 0.0043892264 0.0013115257 0.004382457 0.0031041738 -0.007103429 0.0018244535 0.00548094 2.6990574e-05 0.0031076767 -0.009978146 -0.0041550943 0.010623257 0.011183508 -0.002225088 0.0046732365 0.003662097 0.0076609612 0.00084326096 -0.0010842085 -0.008432272 -0.005821313 0.016163772 0.005657529 0.0033213033 0.008219602 0.0044376976 0.004947027 0.014047707
用 -0.0021044232 0.0041953465 -0.00351095 -0.004034824 -0.0033711533 0.0026424674 -0.0028144538 -0.006160585 -0.007220228 -0.0048004026 -0.0063544186 -0.0070823166 0.0073389593 0.0020379787 0.0012820007 -0.012520834 0.0038416805 0.0073016137 0.007842513 -0.0037844626 0.0038309859 0.001035357 -0.0031244957 -0.0051465365 -0.0007786483 -0.0013057331 0.0036939117 -0.003462131 0.00011270762 0.006546902 -0.009339194 -0.0007060575 -0.002320314 0.0052594044 -0.008107821 0.0015216416 -0.0017826607 -0.006060029 0.0022713763 0.011308987 -0.0053950287 -0.011434966 0.008958185 0.0044593518 0.0038896287 -0.010375598 0.0032576784 -0.0007936547 0.015059561 0.003979163 0.00011893226 0.010340517 0.0060561565 -0.0009817503 -0.001985765 0.005297772 0.0026173063 0.005368808 0.010179919 -0.006480322 0.009524314 0.0018908059 0.009822809 0.0059875953
人 0.0009595517 -0.006278904 -0.001195919 -0.0035565188 0.005888366 0.003081828 -0.009378266 -0.0010875182 -0.005895167 0.003517528 -0.0025691707 -0.0024541558 0.00075784395 -0.0020307777 0.004696107 -0.01250025 -0.0047511877 0.0076663676 0.007497492 -0.0027969137 0.008358263 -0.0037299315 -0.009907753 -0.0054971795 -0.00013332264 -0.0012498251 -0.0004384494 0.0043965555 9.4163865e-05 -0.0042061503 0.00026260057 -0.005289574 -0.006789404 -0.003241377 -0.0075537674 -0.0026312163 0.006220582 0.002969529 -0.008073117 0.00320896 0.0047812 -0.010496306 0.008342763 0.0015808371 0.009747602 -0.0051172352 -0.0054760748 0.009947473 0.0068122013 0.0027536354 0.0021751379 0.014758475 0.00087857136 0.0037696061 0.007887754 0.0007204928 -0.0036468084 0.0055628945 0.010870829 0.0047575603 0.007900767 -0.005257069 0.0061543277 0.00081852154
这 0.0051233675 -0.009566414 -0.009137676 0.0046288585 0.00594326 -0.0029366543 -0.0059134816 0.0017036971 -0.011512518 0.0052016852 -0.0012109068 0.0019313233 -0.0056578754 -0.0073664123 0.0047913934 -0.002961867 -0.003106141 -0.0008000592 0.0027176165 -0.0033251154 0.0050129346 -0.003151009 -0.012048891 0.0014697657 0.0069455933 0.0075778235 -0.0061055226 -0.0024966968 0.0015754133 0.005510214 -0.013255006 0.0024004264 -0.002999775 -0.00425775 -0.0035805788 0.0044830954 0.0029085297 -0.0003025776 -0.00645392 -0.00094962126 0.00029350608 -0.002330365 -0.0034289833 -0.0037118974 0.006071081 -0.003708153 0.006148585 0.00018882674 0.01125465 -0.0012998478 -0.0058596935 0.005606076 0.0066973874 -2.1214835e-05 -0.001040703 -0.008729444 -0.002878476 0.008822499 0.010040966 0.00046682527 -0.0014517942 -0.005168676 0.01195064 0.0021663974
马孔多 -0.003402371 -0.00905412 0.0017103399 0.001106403 0.001828735 -0.00055694033 -0.0096947 -0.006673863 -0.0058514667 -0.00290033 -0.00035092628 0.003972235 0.0044767717 0.0024743727 0.00086958596 -0.014689848 0.0016539244 0.002694414 0.00423754 -0.006019356 0.0071318727 0.0011419579 0.00052217266 -0.00044949196 0.0012623348 0.0011992109 -0.003317998 -0.0018603212 -0.0014334909 0.005276705 -0.004515314 -0.00962711 0.00525252 0.0070534465 -0.008381145 0.0075610466 -0.0037744914 0.00029052756 0.0045835883 0.008781325 0.0030015095 -0.007860289 -0.00236425 -0.008707728 0.0101404 5.189376e-05 0.0023720518 0.0070046177 0.014815374 -0.0032049164 0.005243013 0.0027569423 0.002058811 0.009200948 0.0012056157 0.005044007 0.0051060845 0.0035280203 0.00035739696 -0.007011129 0.010590654 0.0022905017 0.0026888323 0.013981655
里 0.0061920546 -0.008906995 0.0039092647 -0.010605413 -0.005558603 0.008556596 -0.0067469333 -0.0034396318 -0.011402401 -0.00024680395 0.0042682136 -0.0049056434 -0.00050572987 -0.010085642 -0.0007027145 -0.0072332337 0.006391273 0.008105293 0.0060519595 -0.0017918021 0.007603369 -0.00095813215 -0.0037381533 0.0026732644 0.005073659 0.0016616406 -0.0048515177 0.0031340288 -0.004081278 0.0031476368 -0.007714314 -0.007071823 0.0065671345 -0.0014953072 -0.0019086302 -0.0051468723 0.002234714 0.007734798 -0.0034576242 0.007593929 0.0052312375 -0.0039913985 -0.002078149 -0.0015110144 0.00027790663 -0.010347359 -0.006639991 -0.0018947986 0.009065277 0.0031916196 -0.004867719 0.0067384974 -0.0029197352 0.009532411 0.003843574 -0.010490403 -0.0034256093 0.0087712845 0.008494972 0.0024671804 0.010825642 0.0033646359 0.009415438 0.0063846395
还 0.0039380146 -0.0075574694 0.0051470455 -0.009485993 0.0022701996 0.0069292965 0.00076835806 -0.0039235856 -0.0030960853 0.0071051354 -0.0034532235 -0.00031836986 0.0047260383 -0.0036450673 0.0009781498 -0.010713467 0.004584071 -0.005911365 -0.0047041127 0.00037752968 0.0017680624 -0.003976466 -0.0055884873 -0.0021901955 0.002617372 -0.00018188197 -0.00929952 0.005327346 -0.00090724416 -0.0041742595 -0.0112646585 -0.0009716068 -0.0006212513 -0.0028171493 -0.00030548227 0.0005239253 0.008662121 -0.0019375106 0.0022925965 0.0033105155 -0.0062285196 0.005013433 -0.0040405435 -0.0056636306 -0.002654323 0.0030882428 -0.0055524814 0.0019827236 0.004374154 -0.00559255 -0.0061221784 0.009639234 0.0059663476 0.0064922585 0.00515384 0.0050562164 -0.005063315 0.007880169 0.00013004571 -1.08935055e-05 0.009790362 -0.004125784 0.003999167 -0.00018448937
没有 -0.0031836857 -0.0005084708 -0.005344638 -0.006254788 0.0011289982 0.0038355445 -0.00032025302 0.0030718644 -0.010499456 0.007859344 -0.0067786677 -0.004593575 0.007539926 0.0029241538 0.0007418868 -0.008311332 -0.002208481 0.0032112007 0.007293639 -0.0039175055 0.0001245166 -0.009619809 -0.0036837005 -0.0026482062 0.007184025 -0.0025107658 0.00030235603 -0.0074605695 0.004030547 -0.0033981735 -0.010513357 -0.004909313 -0.0030462327 0.004853363 -0.005200955 0.0075583262 0.0026568095 -0.007481519 -0.0042461418 -0.0044557503 -0.0008169741 -0.0047722682 -0.0014017298 0.0033403249 0.0024526645 0.0034769936 0.0065041967 0.004696274 0.012791717 -0.005688511 -0.0033678743 0.011301144 -0.00692297 -0.0033257015 -0.002309669 -0.008056696 0.0019350618 0.012207414 0.008315409 0.005048089 0.0014161643 -0.007192393 0.010470698 0.009958712
地 -6.286051e-05 0.0041391193 0.00351639 -0.0053886725 -0.0028129963 0.007607098 -0.008328685 0.0013816305 -0.009028727 0.002082952 -3.6371435e-05 -0.0022170015 0.0011994557 -0.008378073 0.0010760666 -0.0071508926 0.0050103758 -0.003283025 0.007114835 0.0005296156 0.0051704547 -0.0026820838 -0.004671872 0.004082371 -0.0040561534 0.0066803293 -0.00538783 -0.007700785 0.0075221644 -0.0011861533 -0.0043602074 0.0009128196 -0.0035694758 0.001287648 -0.00055521406 0.0009626398 -0.006184178 0.00013118122 -0.0076084873 0.0018275843 -0.004642122 -0.007654442 -0.004420362 0.0033405726 0.008490245 -0.0008757594 -0.0019807674 0.0017408556 0.010246566 -0.0023725128 -0.0053885337 0.0015756675 -0.0017372738 0.0006813844 -0.00086273067 0.0020657652 0.003958211 0.007955194 0.0040464858 0.0034997691 0.010865083 0.0061738268 0.006924039 -0.0007722138
又 -0.0048207683 -0.005268197 0.004347973 -0.00019547206 0.0065548406 0.0071025486 -0.0036942756 -4.699772e-06 -0.00996119 0.0021107933 0.005643961 -0.008166791 -0.0038455317 -0.0041669714 -0.004841796 -0.0024905833 -0.000994279 0.009129272 -0.002356878 0.0038992905 -0.0015992128 -0.0045653065 -0.0072478964 -0.00027041344 0.0038053638 -0.0026567653 -0.0021456282 -0.0029835838 -0.0028788887 0.0082072 0.0014311224 -0.003865411 0.005870261 -0.0062563205 -0.00070104847 -0.0050784196 0.0015327727 0.0076105394 -0.0033664799 0.0018563367 8.618639e-06 -0.00581709 -0.00023545182 0.004251505 0.009781559 -0.011762217 -0.0036361872 0.0016812115 0.0027598 0.0038315512 -0.003972386 0.013205724 -0.006314932 0.0030113803 -0.0042765485 -0.009566471 -0.004627917 0.0046953727 -0.0018825807 0.002396338 0.010787768 -0.00572392 -0.0023881271 0.009775093
说 0.0029688156 0.0042413506 -0.0008107142 0.0014489149 -0.002648986 0.0052779214 -0.0024161928 -0.0057661994 -0.003219681 0.0023393843 -0.0014710713 -0.0056740316 -0.0028394759 -0.008634691 0.0028897843 -0.013153867 0.005477853 0.0058494317 -0.0017211938 -0.0013339114 0.009053482 -0.008453581 -0.012106531 -0.0026046908 0.0003736547 -1.5703496e-05 0.001581175 -0.006962314 -0.0038777888 0.009232164 0.0023317507 0.0042696446 -0.0048259622 -0.0014207929 -0.0017260676 0.0018867013 -0.00016017655 -0.002782637 -0.0040079933 0.007763664 0.0027982502 -0.008740758 -0.0029665201 0.0026344117 0.010736498 -0.0052073877 -0.007322882 0.003926539 0.00333647 -0.0059067165 -0.0012597245 0.010480188 0.0028673937 -0.0011421478 0.0073231906 0.0039624814 0.0011807403 0.0019549315 -0.00088186166 -0.0034124635 -0.0010395824 0.0037575485 0.006473379 0.005108684
把 0.0020658826 0.0017303888 -0.008593951 -0.0044170376 -0.0042609996 0.0032541652 -0.0061006555 -0.004382212 -0.012947544 -0.006003012 -0.005079911 -0.006661493 0.002006136 0.00087074586 0.007789238 -0.004744034 -0.0037098534 -0.0021713874 0.0013572472 -0.005072787 -0.002924176 -0.0045432583 -0.0080328705 1.7336912e-05 0.005414891 -0.0059067574 -0.0087586455 0.00017241435 -0.0027866352 0.007887999 -0.011820834 -0.005147289 0.002898286 -0.0020709122 0.00041574717 0.0041414783 -0.002372189 0.0013540842 -0.0056343437 0.010724091 -0.0012727425 -0.0036670803 0.0019423215 -0.004967856 0.005086002 -0.006096204 0.00030571857 -0.002685658 0.011218887 -0.008741093 0.005402195 0.01337887 -0.0033139212 0.005600808 0.007968253 -0.008098748 0.0061242525 0.010461927 0.006282021 -0.004691258 0.00059356674 0.0003851843 0.0014591129 0.008679762
被 -0.008047584 0.0031095594 -0.008729753 -0.008429692 0.0025561978 0.0045600417 -0.0029802623 0.002328323 -0.013191873 -0.0046120146 0.0062091434 -0.008764209 -0.0015276464 -0.001479623 -0.0019622718 -0.008657559 0.0064543365 0.0020537127 -0.0023099156 0.0024306295 0.005498832 -0.0060676453 -0.00789873 0.0017575194 -0.00071245927 0.0031409883 0.004272675 0.0010654317 -0.0025636486 -0.00023319818 -0.00084306824 0.0001808495 -0.00092538993 -0.001075709 -0.0014519296 -0.0067847013 0.0045570983 -0.007131387 0.004917124 0.010483575 -0.0018509283 0.0011691276 -0.0041225427 -0.005069092 0.008792367 0.00047316944 -0.00087048253 0.005464175 0.016324775 0.00087650504 -0.0015699147 0.0039589093 0.003857214 -0.0037771193 -0.0006028581 -0.0015405371 0.0084992135 0.013964414 0.011324987 -0.0013030762 0.00052562874 0.004413475 0.011420945 0.008369179
却 -0.008004976 0.00023659423 0.0011209174 0.0017489758 0.0021989504 0.002582964 0.0040898668 0.005302147 -0.0022939218 -0.00045305805 -0.0017519648 -0.005533788 -0.0028986037 -0.003402092 0.00970815 -0.005199208 -0.0031979466 -0.0028898355 0.00029196247 -0.008940169 -0.0022188304 -0.0046335254 -0.01145048 -0.0039419564 -0.006010085 0.00067116594 -0.008816427 -0.010837333 -0.0063676457 0.0015164686 -0.0019268017 0.003178816 0.0023917363 0.0042821756 0.0061147027 0.0039328802 -0.0036137996 0.0064621307 0.006079173 -0.0036441523 -0.004865315 -0.00080239255 -0.003412228 -0.0065280655 -0.0033721298 -0.0121171735 -0.0076020407 0.007848871 0.012043399 -0.004653228 0.005636652 0.007138804 0.0027362974 0.002954184 0.0067959866 -0.008338063 0.009133158 0.007943945 0.004917124 0.003515644 -0.0015617037 0.007843682 0.010185503 0.0072995164
发明 0.0032895352 -0.005778914 -0.003779992 -0.0087701185 0.0018300661 -0.0012538949 0.0005647472 0.007106161 -8.713263e-05 0.00023050024 -0.00054056797 -0.0032488373 0.005020612 0.004066157 0.0017976719 -8.592346e-05 -0.0018139692 -0.0038390164 -0.0024395005 0.0053292233 0.0080986805 0.005691832 0.0028270877 0.00035492345 0.005145747 -0.0017078927 0.00028458977 -0.004846705 0.001963034 0.008699899 0.0030298193 -0.0067653707 -0.005519595 0.0076409765 0.007474797 -0.0014497295 0.0009971806 0.0010977918 -0.007624342 0.0033675455 -0.006618512 -0.0033856502 0.00847444 -0.0066470876 0.00549317 -0.005558731 0.0057444875 -0.002991922 0.005992234 0.004631517 0.0024736505 0.0054707243 0.0021129632 -0.0022160164 0.0060314215 -0.0040574637 0.007745442 0.003253097 0.0065319906 -0.0059393663 0.0077002393 0.0032864276 0.010300085 -4.5419623e-05
有 -0.008336423 0.0013979946 0.0046040663 0.0032060856 -0.0075759627 0.0077929916 -0.00560785 -0.0065970058 -0.005117776 0.005012016 0.0030889474 -0.0033205256 -0.0037098546 -0.0063411905 0.0017157134 -0.013248494 -0.0028606702 0.0022883748 -0.0011656733 -0.005620416 -0.00020094952 -0.0040310845 0.0007019762 0.0012298436 -0.002001476 0.0027802985 -0.00776513 -0.004807128 -0.0015565977 7.941577e-05 -0.0024895682 -0.0020815483 0.0065816236 0.007964921 0.0047013196 -0.0063421903 -0.0035770056 0.005953322 -0.007895042 0.0043199384 -0.0030089396 -0.00039671775 0.004415071 -0.00036503669 -0.0036966722 -0.009309856 -0.003384118 0.0027050355 0.012525762 0.0005003461 -0.0007512858 0.014234183 0.0041055884 0.008522325 0.0047968077 -0.0075808344 -0.0024547654 0.007786723 0.0014696023 0.0032125583 0.0072682323 -0.0027699175 0.011313601 0.0025316891
这个 0.0043004667 -0.00088854413 -0.00049329235 0.0011570171 -0.0064841243 0.0064081633 -0.0064482572 -0.0060966304 -0.011367949 0.0059413654 -0.0019931723 -3.542024e-05 -0.00023747755 -0.0013184808 0.0039296737 -0.0017396063 -0.007557505 -0.0028199442 0.006615915 0.001922028 0.0052361083 -0.009416117 -0.012576371 -0.0041089044 -0.00592138 -0.0009676996 0.001247707 -0.0054325988 -0.0031600907 0.0062917946 0.0036460375 -0.0049612643 -0.0064490265 -0.0005690829 -0.0074821655 -0.0010599301 0.008770242 -0.004546545 0.0048706974 -0.0017041916 -0.0064327205 0.004718452 0.002825303 0.0020465734 0.0008448482 -0.009804172 -0.008195309 0.007834278 0.0053494303 0.0047531226 8.000628e-05 0.011262464 0.00046272122 -0.0006455043 -0.005306505 0.0034354404 0.0072821938 0.0020366008 0.009807383 0.0073289154 0.009397647 0.007048743 -0.0032147637 0.003108466
能 -0.0005831334 0.0041725733 0.001250873 -0.010559872 -0.0009070216 -0.0014767391 -0.0041627074 -0.0025689919 -0.006314045 -0.003830601 -0.0014142616 -0.00015256256 0.0032781498 0.001997642 0.0056692786 -0.01116707 0.005936231 0.0014613614 -0.0021765504 -0.00676159 0.00015984695 -0.0057165963 -0.010098669 -0.0051824744 0.0012552324 0.0021708806 0.0043844003 -0.007667457 0.0030194721 -0.0030520298 -0.010682708 -0.008270985 0.00045282385 0.003771124 -0.006286012 -0.006050356 -0.005269858 -0.0044197417 -0.0072098593 0.0060168356 0.0041807564 0.0030411945 -0.0015946124 0.0058417814 0.00043741474 -0.0012314717 -0.0015907722 0.0012831055 0.010114843 0.0032795854 0.008186973 0.013599206 0.0002549603 0.0044990997 -0.00017569131 -0.00204465 -0.001933296 0.003974225 0.0043180366 -0.005149634 0.0063456646 0.00010176449 0.004145721 -0.0014461725
已经 -0.0047475263 -0.007964575 -0.0064504812 -0.008730252 -0.0019411821 -0.0015776099 0.0017456579 -0.002587742 -0.0019774782 0.007560714 -0.0077914097 -0.007626925 0.00086317345 -0.0020333629 0.006855736 -5.255133e-07 -0.0025023865 -0.00092996785 0.008506611 0.003852679 -0.0011065099 -0.008498962 -0.013822643 -0.0028439374 0.0066930926 -0.0065630884 -0.0013109169 -0.001614937 0.00273186 0.0050353073 -0.000915097 -0.008676935 -0.00066832505 -0.00023854167 0.0039133416 -0.0050008907 -0.0060483785 0.002691137 -0.0065227626 9.195984e-05 0.00060193095 0.001347953 0.006985613 0.0056459014 0.010891794 -0.0049462705 -0.008248572 0.009831944 0.011039858 -0.008125616 0.0015454467 0.00045432796 -0.0017613287 -0.004353653 -0.0037479233 0.0007801431 -0.0012781917 0.008034549 0.0054885205 0.0037275106 -0.002571973 0.00690755 0.001017483 0.009621816
与 0.0032633315 0.005317247 -0.008257477 0.002843324 0.005442291 0.007559813 -0.006264499 -0.00046846273 0.0017720422 -0.0048090215 -0.006110204 -0.0014126619 0.0075915 0.00019351894 0.0071943686 -0.012640204 -0.0016933924 -0.0010325965 -0.00082536595 0.0027149073 -0.001141546 -0.0033038557 -0.009093489 0.0047867796 -0.00017297301 0.006501831 -0.00871462 -0.007248909 0.0024878143 0.0023494337 -0.0076010944 0.0016302174 0.0025851454 0.002748341 0.001917975 0.0053173625 0.0029252942 -0.0028830373 -0.008194242 0.0019649272 -0.0013000101 0.00343324 -0.0004315098 -0.00084915734 -0.0048409873 0.00037189608 -0.0012140604 -0.004722885 0.012170041 0.0028481944 -0.00577445 0.004348329 0.0006419826 -0.0041911993 -0.0027542044 -0.004322034 -0.0031124724 0.00692544 0.0032461907 0.0040226374 -0.0038827744 0.007523685 -0.0008329601 -8.510917e-06
也 -0.0034682048 -0.0031174698 0.001255464 -0.009773314 0.004989299 0.0077864397 -0.00023188608 0.00294361 0.00043365912 0.002469459 0.005860164 -0.0013120283 -0.0009585505 -0.0083401445 0.0075366357 -0.011074628 0.002957822 0.007455894 0.008599689 -0.0011023718 0.009293106 0.004509237 -0.0068832356 -0.003568073 0.001294641 0.0009064537 0.002472797 0.0020005796 0.0071471366 0.0013297381 -0.002031924 -0.007561783 0.006432451 0.0042671897 -0.0003400709 0.0060726227 -0.006570827 0.00689748 0.0037278326 0.0026478497 -0.0018475428 0.001543399 2.5612512e-06 0.0036059348 8.1735125e-05 -0.007672201 0.0003581678 0.0071777957 0.0065684426 0.0033306086 0.0020951843 0.0006319678 0.0020139294 -0.00046421748 0.00070785877 -0.007296724 0.006764489 0.0031490272 0.0009064138 -0.002697934 0.0025759218 0.006961321 -0.0008503884 -0.00067396084
下 -0.0063690734 0.003982506 0.0009359869 -0.0042869826 -0.00035500454 -6.93802e-05 -0.008940322 -0.0035758023 0.00033268085 -0.0027171294 0.0020493902 -0.004264331 0.007421089 -0.005321832 -0.002600412 -0.006782311 0.0011336782 0.0018776873 0.006142936 0.0037759389 -0.0009131573 -0.0006321456 -0.010956232 -0.0026503864 -0.0017129551 0.0027313768 -0.008387486 -0.005717992 -0.0015394653 0.00097040256 -0.0012542176 -0.0101703005 0.0043033455 0.0061155246 0.0054934854 -0.0049554924 0.0021426657 -0.0034485068 -0.00207966 0.006834915 -0.00872172 -0.0040341755 0.00041696057 -0.0027847826 0.006725838 0.0024280606 -0.0015919476 0.005817136 0.012350721 -0.0048469612 0.005365427 0.009405552 0.0015700242 0.0024721546 0.008242343 -0.009808116 0.006386761 0.008547263 0.008144612 -0.004780153 0.004538196 0.008167557 0.00058494566 0.012743389
因为 -0.006648516 -0.0012440294 -0.003809581 0.0029314617 -0.005224331 -0.0013466862 -0.007402495 -0.0039701723 -0.0018805542 0.001368474 0.0049146838 -0.00051612454 0.0062614004 0.0019569905 0.0061417343 0.0008298358 0.0062962687 -0.0025205053 0.007953192 -0.008644631 0.009471155 -0.0017988186 0.00012600508 -0.002206063 -0.0005440608 -0.0037576254 -0.006096203 -0.0048371092 -0.004142745 -0.0054341895 -0.01127876 -0.0047455044 -0.0046606907 -0.0032582218 0.0050534564 0.0031413224 -0.0018937454 0.0025434936 -0.005257187 -0.0040004067 0.006022773 0.0016549884 -0.0047075395 0.004824764 -0.0016472734 -0.013134861 0.005862096 -0.004255193 0.0064908816 -0.0062819016 -0.0045899544 3.2032008e-06 -0.0013862172 0.0008387418 -0.0030767906 -0.0054034945 0.0033096888 0.007919451 0.0031704765 0.00046369885 -0.0015214966 0.0067854663 0.0020156242 0.010318958
— -0.00066567486 -0.002674022 0.0016942046 -0.011004144 -0.006636427 -0.004561351 0.0013262908 0.004107993 0.0017546188 -0.0059040533 0.005969362 0.0005710578 0.0029019003 -0.0004327862 -0.00096230407 -0.0070454483 -0.002291329 -0.0044500465 0.004778003 -0.004278868 0.0051218197 0.002142604 -0.0017762601 0.0075592776 0.005101674 -0.005007009 0.0029991812 -0.005118757 -0.0073933406 -0.0016969393 -0.008573017 -0.007607205 0.008105431 -0.0019063515 0.00069170765 -0.0074697095 0.005530095 0.0057985233 -0.0033999453 0.0072898534 -0.006477326 -0.007072609 0.0014942097 -0.009995014 0.0091949245 -0.0006102842 0.0048996806 0.0072368 0.01379008 0.0021230362 0.006760059 0.001109738 -0.0046336087 0.0018892792 0.0019868577 -0.0005131429 -0.0036635634 0.009779072 0.007122365 -0.0062864986 0.010942606 0.007231143 0.0068355487 0.012613312
向 0.0045208237 -0.0014384798 0.0014770271 -0.0068575046 0.004630979 0.0007905913 -0.0006805867 -0.0054292604 -0.009308833 -0.005460044 0.0057021664 -0.004833251 -0.0011769197 -0.0066672666 -0.004882124 -0.0074756905 -0.003643768 0.0030089314 -0.0049783695 -0.004163738 0.00045360636 0.0009779093 0.0021417974 0.006190284 0.00038274273 -0.0017959729 -0.007071167 0.0054902304 -0.0051044943 -0.0039194375 -0.0095266085 -0.0024143881 0.0036836178 -0.0014659901 0.0037862682 0.005121553 0.0040704273 0.0007440648 -0.0021649757 -0.0028642768 -0.0044143945 0.0013739973 0.0089895725 -0.00045227414 0.0031502564 -0.010765254 0.004334915 0.0007086324 0.0073920237 0.004399667 0.0047193817 0.006118529 -0.003812487 -0.0022540747 -0.0033445733 -0.0016425232 -0.0012026823 0.009629084 0.0077314884 0.0006123452 -0.001990451 0.007944449 -0.0001252914 0.0051383683
时候 -0.0015401096 -0.0020454864 -0.0064318683 -0.003434615 0.0032020165 0.0005917169 -0.002563621 0.0059895054 0.0014711126 -0.0015716864 0.006313867 -0.004011337 -0.0020879586 0.003594873 -0.0024337675 -0.0037102445 0.0024835342 0.0059063253 0.0038003684 -0.0021874814 0.00019273438 -0.0041989246 -0.00018332074 0.004833934 -0.0051617385 0.0010688228 -0.0029946552 -0.000161957 0.0061248923 0.0078113023 9.705243e-05 0.005589655 -0.0053481758 -0.004842865 0.0019052679 0.0071612587 -0.006658159 0.006342101 -0.008234765 0.006910198 -0.004874287 -0.0023719664 0.006147825 -0.006377935 0.0032251307 -0.010377321 -0.004649095 0.005193074 -0.00090199435 -0.005302429 0.0016183531 0.00076831173 -0.0048957225 -0.004934723 0.0013320717 0.0014839297 0.0038641463 -0.0027161078 0.0068533826 -0.007579484 -0.0027376816 -0.0063093426 0.008286446 0.005916645
大 0.001504092 -0.0047314926 -0.0047916393 -0.0062759924 0.0024098908 -0.001158777 -0.007836371 0.005882547 0.004377182 0.0053134384 -0.0017419304 -0.0062329 1.1783341e-05 -0.0030869532 0.0044895983 -0.0025632838 -0.0051530455 0.005895192 -0.0001930565 0.0029839375 0.009932705 -0.0019571418 -0.007262106 -0.00034202615 0.007980078 0.0045550657 0.0035969785 -0.0019683442 -0.003912636 -0.0013065729 -0.002717609 -0.0020042283 0.003270705 -0.002205194 -0.0068622264 -0.00063023635 -0.0033205955 0.0076628276 0.0049473853 0.0017073156 0.0014789416 -0.0051857363 -0.0019128809 -0.0056127775 -0.00026234455 0.0012106668 0.0046332134 0.008991714 0.011010335 -0.009324225 0.008099731 -0.0038190717 0.006451279 0.0015303371 -0.002610844 0.006402641 -0.0059743165 -0.0035465294 0.00013605245 -0.004912818 0.0083541395 0.005065863 0.00046764404 0.0077582407
来 -0.0019825886 -0.0038306797 0.0046919407 0.0020612865 -0.0024621994 -0.00019793844 0.0044459486 -0.0045418763 -0.008534086 -0.0053961095 -0.0073777214 -0.0024938965 0.0024428004 -0.008861511 0.0057713236 -0.0049645323 -0.003646501 -0.005483806 0.0031836953 0.0010701304 0.0012500371 0.0036145379 0.0013056295 0.00066618365 -0.0021083977 0.00526724 0.005713108 -0.005040607 0.0043044686 -0.0026683782 -0.0048983563 -0.0068793115 0.0006758751 -0.0048813308 0.0032049364 0.0049404423 -0.006843649 -0.001510933 0.005305479 -0.0032022365 -0.0031172712 -0.00686324 -0.003852374 -0.0073764157 -0.00058002456 0.0036520765 -0.00050722965 -0.00020925947 0.01008994 0.0018022851 0.006290537 0.0035139464 0.0025023257 -0.005270118 0.0074396734 -0.008088788 0.0077596474 0.012888688 0.0050764377 -0.005914533 0.004986249 -0.006534765 0.008292593 0.010061407
我们 -0.0044336505 0.004200051 -0.004230858 -0.004035885 0.0035039799 0.0070864 -0.006057335 0.0046125758 -0.0036894605 0.0046972604 -0.0009855476 -0.008049728 -0.0047157845 -0.006812226 -0.005535436 0.002008363 -0.006003531 -0.006008471 -0.003536522 -0.0079015745 0.000625293 0.0057181544 0.00024858338 -0.0019547245 -0.0028815782 0.0040728957 0.0061578285 -0.009013571 -0.0022360503 0.004099973 0.0004612632 -0.008137356 0.0031024148 0.0038193648 0.0069841226 -0.0029386678 0.0014585803 0.004367203 -0.005650136 -1.3359659e-05 0.0035779807 -0.00085316546 0.0023896485 0.0027595784 0.0016524638 -0.0035014711 0.0030955605 -0.0019711999 0.0073481477 -0.0029295539 0.004131493 0.001237221 0.0016598395 0.0028529284 0.001423653 0.0033087682 -0.0038292455 0.003047898 -0.0054903203 -0.008014155 0.0050361454 -0.0040115933 -0.0010923045 0.0052549727
时 -0.0032454673 0.0020264783 0.0013809388 -0.008520014 0.00078148436 -0.004377171 -0.007020312 0.0005347589 -0.0021379034 -0.006286478 0.0015174905 -0.0062657692 -0.0033920552 -0.0056778565 0.0066887285 -0.008735041 0.0035211078 0.008397128 0.007108426 -0.0067076753 0.0067085843 0.0045761657 -0.007248418 -0.00506523 0.00012938572 0.00039292825 0.0061877538 -0.006913963 0.002146463 -0.006068483 -0.008262428 -0.0022366678 -0.0014935364 0.0062156944 -0.0066135423 0.0024397552 -0.0021306651 0.0012141902 -0.0078523075 0.0086606005 0.0029957145 -0.008023222 0.008205936 0.0055525564 0.00887075 -0.0045258263 0.0065873913 0.0016432374 0.0023898832 -0.0076771816 -0.0022126876 0.0012969144 -0.003204026 -0.0015218453 -0.00025533495 -0.0033828807 0.0021641222 0.007526254 0.0069853687 -0.00490974 0.009065869 0.0064020194 0.009736091 0.0019518881
人们 0.0016997867 -0.0067896196 -0.005514403 -2.3779106e-05 -0.00041273906 0.007661657 -0.009227767 0.0008607849 0.0006225535 0.007643803 0.0025905827 0.0017286143 -0.006917706 0.0059686513 -0.00041197424 -0.0055424813 -0.0011502563 0.00067993806 -0.0038103433 -0.0028339333 -0.005041478 -0.001431441 -0.0015863928 -0.0013624048 0.002405573 0.0017957329 -0.0033440327 0.0013967173 -0.0054564117 0.0064883456 0.0036431984 0.004141804 0.00024774962 -0.005096892 0.0058130664 0.0043443977 -0.0004934466 -0.0009666764 0.0009782822 0.005181539 0.002250426 -0.008113187 -0.0049327766 0.001929528 0.0042724535 -0.0014310929 -0.007066376 0.00034627123 -9.544827e-05 -0.008329878 0.005416118 0.0088347085 0.0026724904 -0.004677148 0.0039455527 -0.004119919 0.008612682 0.006725939 0.0040666033 -0.001762987 0.003219863 0.0041985707 0.0013737696 -0.00081515365
后 0.002903779 -0.0030575092 -0.006528264 0.0017940272 -0.0024605468 0.005852368 0.0016121077 -0.00442604 -0.010014227 0.007540009 -0.0058931815 0.0024774196 -0.005302448 -0.008107473 -0.004950302 -0.0047659376 -0.0016222204 0.0050831526 0.0068636243 -0.0045920243 0.005058192 -0.0037908077 -0.004842895 -0.003459626 0.0077068713 0.007835107 -0.0048511834 0.0045011486 0.00362242 0.007286773 -0.008352698 -0.0040274803 0.006408092 0.007066769 0.0031513837 -0.003354177 0.0073081627 -0.0019891022 0.00015799957 -0.0010176064 0.005399516 -0.0047636013 0.0044390545 0.0044858092 0.0027799886 -0.009586018 0.0034427824 0.00555327 0.012785348 0.00024522873 0.006467132 0.010557538 -0.007563424 -0.0016145692 -0.0019298684 -0.0035047103 0.0035265214 0.011730747 0.006836108 0.002552325 -0.0018352342 -0.0016201027 -0.0036981492 0.0011594719
不 -0.005112223 -0.0026524547 -0.007876017 -0.0032231773 -0.00440827 -0.004256999 -0.00030577552 -0.00037075306 0.004468532 -0.0036461055 0.0031626676 -0.006702166 0.0062955576 0.004101208 -0.0029331672 -0.0073387283 -0.0050445613 0.0073805796 -0.003131949 -0.007317132 0.0039695557 0.003476918 -0.006750358 0.005265662 -0.0051333136 0.006831425 0.0039663003 -0.005258282 -0.0032186175 -0.006463916 -0.007041494 -0.008682305 0.0024699206 -0.0013887978 0.003951437 0.0063640852 -0.0052570766 0.004084794 0.004629832 0.00082782866 -0.008021043 -0.0005884696 0.00413181 0.0048492947 -7.146709e-05 0.0012875103 0.0072314613 0.002303599 -0.0032883913 -0.0076347883 0.0024913554 0.009587697 -0.0004050247 0.0063273567 -0.005438271 -0.007526082 0.0006351699 0.004197064 0.0037714783 0.0065560876 0.008194575 -0.0023572198 -0.002307214 -0.0029952535
为 -0.007691204 0.0063719554 -0.0019063121 -0.007595734 0.004158225 0.0048763864 -0.0017868371 0.0019431954 -0.0020035536 0.0080057 0.0032189686 0.0018967417 9.009335e-05 -0.00042711693 -0.0055221766 -0.0022171575 -0.006908884 0.0004498485 0.0074266708 0.0016350717 -0.00038658717 -0.0069814376 -0.0010790376 0.0072621736 -0.0042766677 -0.0072171185 -0.0021180846 0.002955299 0.006398447 -0.0027166808 -0.00670376 -0.007692278 0.0005050569 -0.004482709 -0.0003814928 0.0074091605 -0.00013642202 0.0068525793 0.002509917 0.0077556917 0.0053297915 -0.010145912 0.0014193133 -0.0009695157 0.007365648 -0.002079769 0.0061397 -0.001757141 0.011147944 0.0014036396 -0.0007693964 0.00090274704 -0.006334715 -0.0005691398 -0.001672434 -0.007864339 0.0035533844 0.008884587 -0.0042113704 -0.006184605 -0.000110175475 -0.0033324345 0.0048294063 -0.0004554691
· -0.000591731 -0.00526857 0.0051106634 -0.0025604775 0.004834158 0.0035733164 0.00067515677 0.0017799174 -0.011052526 0.001331288 0.0029632933 0.0056214863 0.0031508885 -0.0017125523 0.0032033266 -0.00885713 -0.0026905602 -0.002039279 0.00038749186 -0.00013759598 0.0041300305 0.0019004393 -0.0038040667 0.006465701 -0.0018611582 0.0032495167 -0.0054862723 -0.0038365645 -0.005167404 0.0012195075 -0.0026056452 0.0013297236 -0.0040318607 -0.0073111323 0.0033575376 0.0032193332 -0.0045219124 0.0062750787 -0.00095440744 0.0017961622 -0.0032985513 -0.009790319 -0.006168359 -0.003659287 0.0093708495 0.0014792325 0.0032656665 0.0075908005 -0.00036271825 -0.009866001 -0.0007413169 0.005192379 -0.0049164994 0.0016662839 0.008105769 -0.0022936082 -0.005191999 0.006876277 0.007851902 0.004726623 0.004988544 -0.0065006423 -0.0005703437 0.009877975
一起 0.0033550644 0.0055283527 0.0033298896 -0.005440946 -0.004192997 5.331218e-05 0.0060439007 0.003897321 0.0010820683 0.0015512089 0.0024958916 -0.001322743 0.0044811503 -0.005553684 0.007182565 0.000113374364 0.003018174 0.005003074 0.005764832 -0.0018646669 0.0032846124 -0.0070719467 0.0028322139 -0.004058842 -0.0061818147 -0.00014168641 -0.005182171 -0.006171201 0.004483678 0.0020048872 0.004253613 -0.0026756127 0.007155221 0.00035047813 -0.00013795357 0.005869452 0.0024854385 -0.0066770883 -0.0009597812 -0.0006120693 0.005613476 -0.007671623 -0.004130672 0.0025063413 0.008415958 0.0018962437 -0.0036593806 -0.002610299 0.0076694987 0.0025005154 0.0016792263 0.0026402953 0.0015984166 -0.00027888137 0.002283471 0.0009229119 -0.0030559634 -0.00076194055 0.009057289 0.0010761439 0.0080803465 0.0017530946 0.00221953 0.010688194
父亲 0.0006381442 -0.007086407 0.0031934825 0.003559125 -0.0075002555 -0.0019027538 -0.0066373297 -0.0031503574 -0.010819325 0.0027883446 -0.008006046 -0.0060031163 0.004958769 0.0010442364 0.0024455045 -0.006431619 -0.0005508128 -0.006187612 -0.004888252 -0.00576888 -0.0021449148 -0.0025055234 0.0018493661 0.0029269385 -0.00597123 -0.0073582907 -0.009236634 -0.0019119246 0.0008987993 0.009171079 0.0019425803 -0.0006109795 0.005086172 0.0038107915 -0.0063113193 -0.00016645293 0.00401059 -0.005216411 0.0012328454 -0.00060919917 -0.002714529 0.0012687545 0.0023639812 -0.0049621635 0.0056178733 -0.006841685 -0.0044226106 0.0024459753 0.0048237243 0.0030600075 0.00010444641 0.007799937 -0.006800659 0.004664571 0.00672713 -0.003880459 0.007691918 0.005596013 0.008512009 0.0070089693 -0.00484291 0.00528178 0.0030453254 0.0019316905
如何 -0.001022296 -0.0045014005 -0.0014052507 -0.0027175972 -0.0033723149 -0.002697908 0.0059347358 -0.0021710836 -0.00038861114 0.0048707835 -0.0030929213 -0.0057681184 0.0071911355 0.0018924726 0.0007102122 -0.0014677792 -0.003270898 -0.0057647917 0.0043364177 0.0039975685 -0.0012702416 -0.0009833946 -0.0025149656 -0.004610451 0.006509447 0.0050477693 0.0036988398 -0.008403151 -0.0045045894 -0.0020879845 0.0010395107 -0.0065198443 -0.0024364935 -0.0010102977 0.0067292866 0.0046879197 0.0045870473 0.0027631759 -0.0079281125 0.0012274372 -0.0073409425 -0.005285537 0.008165536 -0.000564612 0.005364899 0.0003995143 0.0053956914 -0.005834313 -0.002930589 -0.0014008068 0.0021169093 0.0040423945 -0.001490171 0.006126938 0.006501954 -0.007524768 0.007535679 0.010624653 0.00811405 0.0047303434 -0.0025183111 0.008047881 0.0055489265 0.002052353
无法 -0.001748599 0.0019507726 0.0055176993 -0.0017573041 0.0040764385 -0.0033007527 0.005115966 -0.0044449368 -0.0021624898 -0.003956601 -0.007928463 0.0038012695 0.007925443 0.002318449 0.0027987764 0.0014773417 0.0027782684 0.007578998 0.00021271332 -0.008184294 0.003935383 -0.007649547 0.0013187288 -0.0070404503 0.0074409125 0.0012005678 -0.002370726 0.002738112 0.0014657599 0.0021838595 -0.008412178 -0.0041475603 0.003612637 0.0072588725 -0.004164924 -0.0058451467 -0.0024495926 -0.005685029 -0.0059208246 -0.00011679436 0.0031644423 0.000106801395 -0.004914986 0.0040071206 0.003661961 -0.0033774257 0.0021574097 -0.0057827593 0.009250741 0.00028828447 -0.000121852456 0.0077297315 0.005339357 -0.002558617 0.008499957 0.0045110118 0.001150649 0.00521199 0.00069138245 0.0003481197 -0.0021009024 -0.00081813254 -0.0046056104 0.0050231623
去 -0.0016296034 0.0022331001 -0.0069114757 -0.0012414156 -0.0062138285 0.003419564 0.0036019194 -0.0040260404 -0.005676594 0.0063549886 -0.005173063 -0.008596611 -0.005667335 -0.00055508205 -0.003457125 0.0030141163 0.001667992 -0.005023579 0.0051176157 -0.00770975 0.004404826 -0.0032986128 0.0024555412 -0.0052718045 -0.0026669821 -0.0053731743 -0.0025005834 -0.00030965568 -0.0017506619 0.008234465 0.0018233028 -0.005622602 -0.0018466631 -0.00058155536 -0.0038562017 0.003547578 -0.0022770374 0.00033098293 0.0030640347 -0.0027555316 -0.0038135056 0.00021972632 -0.004495168 -0.008319708 0.005127303 -0.0064875623 0.0068293987 0.0038273486 0.0039630383 -0.0051253466 -0.00643152 0.01108908 0.001091619 -0.0022303797 0.0059659104 0.0029692417 0.0015095156 0.0044487407 0.008004175 -0.0008480635 0.007602351 -0.004436155 0.008602619 -0.0038581255
那时 -0.0066030533 0.0068222233 -0.0035076952 0.0054004733 0.0029027816 0.0027169026 0.004094436 0.0073475973 0.004104923 -0.004083551 0.003264483 -0.0054664756 0.0007141341 0.0016412716 -0.00034038743 0.004872945 0.0025731218 0.0065095825 0.0036545058 0.0016964216 0.005398296 0.005578007 0.0011795807 -0.0009888912 0.0013969074 0.00014529163 0.00070742925 0.0056514996 0.0074956566 -0.0058595045 -0.008836594 -0.0034746302 -0.003719828 -0.005236717 2.4954792e-05 0.0013025291 -0.0010249803 0.0010756367 -0.005624807 -0.004480457 -0.0049436553 0.005976963 0.00539945 -0.0064433943 0.004310547 0.0044648517 -0.0018011348 0.0025698196 9.9539524e-05 0.0017555857 0.004430298 0.0012694343 -0.0052224766 -0.0018310018 0.0019984024 -0.0039322446 -0.0012387756 -0.0013066195 -0.00324334 -0.0018283899 0.00459216 -0.0036263906 -0.004728769 -0.0023902361
世界 -0.0065482436 -0.0041677677 -0.0058091884 -0.004168575 0.0012552898 0.0013174299 0.0014514842 0.001230487 0.0011557644 -0.0022293897 -0.005945355 0.002469757 0.006826645 0.0008226245 0.006226683 -0.0092585515 -0.0039246506 -0.001403351 -0.004229153 -0.0061995015 -0.004576297 0.005713243 -0.008400195 -0.0079851765 0.0071036066 -0.0061398265 -0.00027135195 -0.00909925 -0.0038716926 -0.001971108 -0.00722976 0.0020729688 0.007450109 0.007977777 0.0014201764 0.0037747875 -0.0035318993 -0.0012474712 -0.0044418555 0.005894266 -0.00434398 0.003024879 -0.0060752635 -0.0053598303 -0.0007560709 8.203563e-05 0.002714335 -0.0015828601 0.001922619 -0.009069659 0.0020135988 0.010203856 -0.005150279 0.0040573473 -0.0025939806 0.0021822427 -0.0040482497 0.00973057 0.007410936 0.0005871354 0.0041799536 -0.006442568 -0.000745057 -0.001513462
来到 0.0016410375 0.0052461047 0.00052219816 0.0013506693 -0.007851764 -0.0007054338 -0.0050621573 0.00020117674 0.003397481 0.007048118 0.0020413175 0.0024048842 0.0061569894 -0.0010173542 -0.0022864267 -0.009716892 0.0010182962 -0.00078919815 0.0015558029 -0.009142052 0.0034181196 -0.003992705 -0.002797957 -0.007393399 0.005440116 0.0024099555 -0.008991251 0.006328601 0.0052196328 0.0014122882 0.0024958076 0.0062861466 -0.00029187818 0.007364198 0.0010866672 -0.0068632183 -0.0035323994 0.005835458 0.0018330019 0.0064837527 0.006260752 -0.0040186285 -0.0054690205 0.004787633 -0.0051410147 -0.0048097875 0.006542008 -0.0048622875 0.010840966 0.0011017079 -0.0005502383 -0.0029144683 -0.006300792 -0.003478196 0.004402396 -0.0004652873 0.005276243 0.0038937402 0.0016664751 -0.0032348458 -0.0010192505 -0.0033482516 0.009721737 0.009260103
帐篷 -0.0040923012 0.0022126834 -0.008360734 0.0053858226 -0.0024241644 -0.0059202183 -0.0011525475 0.0010868489 -0.0002538668 0.0077609005 -0.0033750331 -0.0051886826 -0.005054571 0.0023274897 0.0072354283 -0.007829364 0.0004613356 0.00823157 -0.0015682353 -0.007234222 0.0056879097 0.005576585 -0.004253502 -0.006455963 0.0033387225 0.0074184164 0.003055763 0.00083559536 -0.0038560187 0.0035589107 0.0041874144 -0.0046973815 0.004895377 0.0028998286 -0.0064466996 0.0049139615 0.0068561137 0.0026497566 -0.006998059 0.008153883 0.0047283657 -0.008823255 -0.00018471359 0.0032997853 0.004046383 0.003552378 -0.008130756 -0.005381315 0.00040658808 0.0047142245 0.0042543793 0.0072107776 -0.0030185822 0.0013998956 -0.0016674871 0.00041467926 0.006313097 5.1921936e-05 0.0021972314 -0.00029561835 0.0035643058 -0.0038566503 0.010251573 0.0008231764
那些 0.003646873 -0.0015000176 0.0039606523 0.0024757183 -0.001662488 0.00835009 0.0006319507 0.0034467564 -0.0033387428 -0.003377889 0.0005328936 0.0022892482 -0.0022991628 0.0029563343 0.0067528305 0.0041840514 0.0012613243 -0.0067570023 -0.006385152 0.0033639183 0.0067007975 -0.0025858872 -0.0065851198 0.00059141545 0.007224033 -0.00044059515 -0.0025173055 -0.004514855 -0.0057659624 0.00012929176 -0.0019423944 0.003482149 -0.0064080977 -0.005086056 -0.0037335965 0.002827317 0.0015282377 0.0020912103 0.00294764 0.0066539734 0.0019960278 -0.002347194 -0.002655899 0.0051058475 0.001190974 -0.009945354 -0.004387451 0.009201611 0.0011472217 -0.009210841 0.0063112113 0.006660252 -0.0032828343 0.0060078404 -0.0033341132 -0.00013584731 -0.0011130498 0.009195834 -0.00082157884 0.0034947158 -0.0032069422 -0.002465494 0.009505937 0.0030879707
地方 0.005152969 -0.0021391797 -0.0011751746 -0.004611669 0.0041325483 -0.0058086673 -0.0018333512 -0.00061836396 -0.0020486652 -0.00026325893 -0.002743293 -0.0014249193 9.485576e-05 0.0015136503 0.0078059016 -0.0029502166 -0.0019942238 0.0032280313 -0.0014469877 0.0013715073 -0.003914909 -0.0072008064 0.0049420055 0.00021323029 -0.0032308185 -0.0026461636 -0.00037870917 0.006404325 -0.004609317 -0.0022544467 0.00018153139 -0.008105127 0.00598797 -0.00749046 -0.0016403826 -0.0030857804 0.0051030316 0.006712969 0.0006338918 0.006230249 0.00449549 -0.0070552374 0.007212576 0.0034219231 -0.0010655508 -0.0008693639 0.0051233615 -0.00030158667 -0.0016453798 -0.0050035776 -0.0023170847 -0.0029747705 -0.0040791826 0.0050283917 -0.0032062517 -0.0066138497 0.0027462929 0.005711524 0.0037081996 -0.007626431 0.005461046 0.004278402 -0.0038003984 0.007743107
只 -0.006584624 0.0007870045 0.0007754517 -0.0077691805 0.0072422214 -0.005642786 -0.0010773145 -0.006824834 -0.0029054538 0.0036194911 -0.0071368264 -0.0013558904 0.001611896 0.0054193917 -0.0008090318 -0.0074011036 0.0057180542 0.008309157 -0.0055783 -0.0032151644 -0.0029804618 -0.0030339605 -0.0035615556 -0.0031841765 -0.0018796708 0.0048141126 -0.0010670024 -0.005375459 0.00064429507 0.0012271045 -0.008543694 -0.0071100243 0.0016103106 0.0028331124 -0.0017049283 0.0061151064 -0.0024219756 0.0018903328 0.0054427916 0.009484566 0.005371245 -0.006219503 0.0043424033 -0.0012333061 0.001626312 -0.009082966 -0.0005079292 -0.0036556378 -0.0026573923 -0.00017977826 0.0035409532 0.0100173615 -0.00020634178 0.006932526 0.007858759 0.0063576247 0.0049894284 -0.00040443457 0.0016813938 0.0011014806 0.004214343 0.0034463461 -0.00031136832 -0.0030614405
男人 -0.001458882 -0.008422126 -0.0078686075 -0.0030961698 -0.0015499536 -0.0050058924 0.00021170468 0.006949307 -0.0065596225 -0.0006048559 0.0068364176 -0.006854055 0.0025533675 -0.0044566896 0.0011407096 0.003045572 -0.003764627 -0.0027186165 0.00016746498 -0.0075096763 -0.00045325348 -0.0040396503 -5.1904673e-05 -0.0011860358 0.005060847 -0.0024387161 0.004557504 -0.0036177714 -0.0066944873 -0.004593247 -0.005973701 -0.0032119656 0.007773681 -0.0012416905 -0.0012085618 0.0074738096 0.0047632027 0.006564091 0.00708883 0.0056721363 0.002195435 0.0014296166 0.00807306 -0.0029387458 0.0012552671 0.003293988 -0.0055913627 -0.0001578765 0.0020111606 -0.006913602 -0.0054205535 0.0034641253 0.005284043 -0.0023080274 0.008568662 0.005688842 -0.00567194 0.008673801 -0.0050674295 0.0055001886 0.0068458426 0.0017554141 -0.0031895256 -0.002071936
女人 -0.0019072479 -0.0033707363 -0.0070429863 -0.001805112 -0.0030214384 -0.003950334 -0.008117804 -0.0038875162 -0.0017246517 -0.006007872 0.0024867805 0.0048573376 0.003317347 0.00503988 -0.0040630875 0.0026387617 0.0034692741 0.0012218052 0.0058344128 -0.0052722236 0.0026091 -0.003960221 -0.00055769924 -0.0006989202 0.0017278933 -0.00050236605 0.004839986 -0.006133301 -0.0066302326 -0.0026559513 -0.008605683 0.0039298926 -0.004328699 0.0058084903 0.003424377 -0.003531502 -0.0023972692 -0.006092028 -0.0065044123 -0.0020435136 -0.0030514528 -0.0077891303 -0.0035124978 -0.00748829 -0.0012961507 -0.009481347 -0.0033044177 0.0005338167 0.0049391235 -0.008402406 0.0004089323 0.0049138856 0.0019836677 -0.0021834252 -0.004164187 0.0013701966 -0.0015626884 0.006460516 0.00294435 0.006761145 0.009057247 0.0029108347 0.0035845554 -0.0053002657
让 -0.004434825 0.0005533425 -0.0038538747 0.0062908083 0.00057470304 0.0022450231 -0.008659093 -0.0010628796 0.0007568501 -0.004602223 0.0064190757 -0.00886702 0.0005066696 -0.0048571927 -0.0032946425 -0.0041249823 -0.0038339244 -0.0046173227 -0.005746831 -0.007767758 -0.004170738 0.0017816133 -0.007841537 -0.0050694817 -0.0036213952 0.0067298026 -0.0064196363 -0.005241528 -0.004379556 0.002021227 -0.006187966 -0.006639146 0.007037425 0.0037536935 0.002676733 -0.0063851215 0.0036411644 -0.004301474 0.002674211 0.0074469266 -0.003218993 0.00018845986 0.006394212 -0.0073427344 0.0014977214 -0.00036102498 -0.0028937887 0.0015856008 -0.00080531853 0.005041899 0.004860163 0.006054474 -0.0071837488 0.008090283 0.0070529333 0.0015455048 0.0021056654 0.0059276754 -0.002320857 -0.0012110961 0.004511493 0.00054951874 0.0068355245 -0.00044136992
那个 0.0020262003 -0.004068122 -0.008282255 -0.008033629 -0.004867674 0.006929588 0.0014079136 0.00013007608 -0.0077459337 0.008302384 -0.0044774464 0.004995655 0.0032553503 -0.0051345895 -0.0063142576 -0.010075516 -0.005694573 0.0017223868 -0.0020426046 -0.001850692 -0.0028063722 -0.00045565987 -0.00028885453 0.0009710675 0.001350785 -0.0077381227 0.0003717781 0.0056305607 -0.0025805768 0.0027262191 -0.006386099 0.0006956546 0.0075866748 -0.0022960438 -0.0051417686 -0.0076208264 0.0050472706 -0.0033637718 -0.0055789878 -0.0046854727 -0.006932317 1.916943e-05 0.005529739 -0.0009717558 -0.0042437064 0.0026146467 -0.0002699932 0.004640429 0.010218672 -0.006249945 -0.0005645443 0.007802916 0.002921994 -0.0033458695 0.004508873 0.0022164742 -0.0016045872 0.008773522 0.0019171163 -0.004960628 -0.005731604 -0.005036832 0.0008345244 0.008664687
实验 -0.0034915586 -0.0013156253 -0.0010748928 -0.0065634097 -0.005455243 0.003556666 -0.006470635 0.006098048 -0.0022201834 0.0059425686 0.0056357696 -0.002120166 0.0022721724 -0.0074111708 0.007891767 -0.006224119 -0.00036334406 -0.0039506643 0.006886028 -0.0049028466 -0.0041867862 -0.0037632163 -0.0044909194 0.0057788086 0.005475905 0.0064360253 0.0005963009 0.005325863 -0.0038447268 0.008604485 -0.006392037 -0.008314353 0.001962039 0.0006453765 0.0005738408 0.007761826 0.003520965 0.0029356652 0.004446173 0.002285623 -0.00076990796 0.0010319693 0.005606221 -0.0008045144 -0.0020174964 0.0026448874 0.0028781614 -0.0010981818 0.005356991 -0.0054002237 0.0015113301 -0.0005625232 0.0018069842 -0.0025080633 -0.0026645996 0.002672333 0.0045265392 0.009522439 0.004548108 -0.0062572802 -0.00027627713 -0.0047925897 0.0072295475 0.007452427
于 0.0017937284 0.0020992896 0.0011655382 0.0028573698 -0.0037077712 -0.0029540039 -0.0067774355 -0.002583778 -0.009783154 0.0001127793 -0.006930255 0.0061082607 -0.0015311927 -0.0051599573 0.002516736 0.002467459 0.0071784174 0.0061103986 0.0010279175 -0.0012293626 0.0018310373 0.0037584687 0.004684674 -0.00071152794 -0.0031365994 -0.007795473 -0.0015093937 -0.009030746 0.006837156 0.0021095339 -0.000100035235 -0.0023300021 -0.0012518378 0.0057818363 0.0012400675 -0.0014746655 0.0023097985 -0.0061310288 -0.0005244177 -0.0037741817 0.0030993149 -0.0010813973 -0.00080086774 0.0065854457 0.006004862 -0.00022864743 0.0006616845 -0.00031955342 0.010190497 0.0020921156 -0.0035518082 -0.00055758376 0.0056470926 0.008276728 0.0011423838 -0.0047189244 0.0007696641 0.009211945 -0.0038127122 -0.004442939 -0.0044480506 -0.0022887834 0.002268607 -0.0013405381
才 -0.0042923694 -0.0017113661 0.00019391158 -0.00093861384 0.0075985277 0.005375227 -0.005035544 0.0024706663 -0.009047124 0.0028262208 0.004962556 -0.008784752 -0.0015696853 0.000586805 0.008576607 -0.01012986 -0.007224018 -0.0041121403 0.0006815231 -0.00798638 0.006204507 0.0029358726 -0.0019694206 0.0069028926 -0.0040555215 0.0046640984 -0.0051383157 -0.006485693 -0.0062598116 0.00681889 -0.0019170117 0.00019118386 -0.0021931182 -0.0035655687 0.0014904405 -0.0058552073 0.004771877 -0.0057832547 -0.0065857503 0.0014238337 -0.002305365 -0.0066134054 -0.0053662173 0.0012201001 0.00384675 -1.1861132e-05 0.0018831941 -0.004198133 -0.002312344 0.000788407 -0.0064667924 0.008594973 -0.004811739 -0.0049168854 0.0069694226 0.0024831486 0.008298592 -0.0006202564 -0.000929652 -0.005062764 0.00046470625 -0.0069817537 -0.001804314 0.006839843
过 -0.007699857 -0.0070194295 0.0039694766 0.0061303996 -0.0048741256 -0.0070697456 -0.0034345656 -0.0018836891 0.0041965796 -0.0016348297 -0.0054595335 0.0015228916 -0.00423289 0.00014094615 0.004220768 -0.0024569412 -0.0003325354 0.002995402 -0.0038919104 -0.0061691175 -0.0033335756 -0.0035920015 0.0013296823 0.0011385637 0.0011041681 -0.0046394663 -0.007900981 0.003741154 -0.0029316035 -0.0060222023 -0.0019987058 -0.0015904442 -0.0058903876 -0.0025696459 -0.0002900836 -0.0053061876 -0.0017902033 0.0073888237 0.0068463157 -0.004241352 -0.0014108396 0.0003605528 0.0028549957 -0.0024893302 0.005950408 0.002528672 0.0036371392 -0.0013521352 -0.00042559716 -0.007889745 -0.00042155074 0.0020766747 -0.0021039501 0.0033427132 0.0072105313 -0.0057355105 0.0028745695 0.0031973475 -0.0015132802 0.0024565144 0.004591725 -0.0020806089 0.008797375 0.0016911577
神奇 -0.006706305 0.003115438 0.0057602697 0.0020992039 -0.0033818218 0.0058444445 -0.0024690067 -0.004117272 0.0005355625 -0.0008533687 0.0027285991 0.006208925 0.007309173 0.0066342265 0.0076806536 0.0046036933 -0.0029928938 -0.0062113153 -0.005314432 -0.0022349295 0.006087043 -0.0051097516 -0.008385978 -0.0060161846 0.0038164353 0.00187417 -0.006699036 0.002252066 -0.00455926 0.0016369147 -0.0010796338 -0.004028065 -0.001027212 6.378378e-06 -0.0069531016 0.007320793 0.00425652 0.0008479732 -0.0046021724 0.0019559755 0.005733293 -0.0045638103 0.008047667 -0.0069419737 -0.005084561 -0.0008949856 -0.007661673 -0.00016008713 0.0055433004 -0.006897383 0.004567415 0.009746033 -0.002293242 -0.005635428 -0.0036842553 -0.004127872 0.0075698807 0.00030061178 -0.0029737887 0.0054841912 -0.004417763 0.0059968326 -0.0057541467 0.007130822
像 -0.0034213392 -0.0009630484 -0.0027168763 0.000586075 -0.0066311937 0.002249793 -0.008642777 -0.004227664 0.0041707186 0.008250896 -0.0010451729 0.0047132745 -0.0017643586 0.0040816218 -0.0039467583 -0.007880578 -0.0011218595 0.0027560708 -0.0012264345 0.00282882 0.007773442 0.004091015 -0.008521465 -0.007521594 0.0033369518 -8.3138235e-05 0.004156906 -0.0067586796 -0.003401451 0.002978089 -0.0045953337 -0.0072925347 0.0036183347 0.0060442057 -0.00053582643 0.0043141176 -0.00675108 -0.0068482347 -0.006075354 -0.0042776493 -0.0046187104 -0.00017744901 0.0015131723 -0.008489992 0.0003565447 0.0012559992 -0.0019191966 0.0042929216 0.005967874 -0.0065286504 3.508897e-05 0.010300562 -0.003491454 -0.0018070323 -0.006813301 -0.0013096774 -0.0065821568 0.009029878 -0.00078201527 -0.0026735119 0.0031028814 -0.002783773 0.0029367758 0.0027511867
村里 0.0073453775 -0.0006314851 0.005589902 -0.0049026953 0.0058134315 0.00011134785 0.003712192 -0.0035752263 -0.0065960907 -0.0056728646 0.0053707627 0.003922802 -0.0061059943 0.0018406581 -0.0014928825 -0.0026766844 -0.0014139438 -0.0045512933 -0.0053648967 0.0034868866 0.0022806611 -0.0043393103 -0.0070192954 -0.0044452487 -0.0042545204 0.0033216337 -0.0026899786 -0.0041275052 -0.006294633 -0.0063239085 0.0032038088 -0.009075841 -0.0015616408 0.005433502 -0.0016701324 -0.002938635 0.00034046764 0.0066144005 -0.0020606904 -0.00451342 -0.0041392287 0.0029977944 -0.0028091946 0.0011735441 0.00012226403 0.0010900237 -0.0045744767 -0.0031011417 0.0012626594 -0.0014723932 -0.0069943974 0.0050791865 0.004722375 -0.0018314992 -0.0019231404 0.005291264 0.0047152177 0.003135269 0.0008435338 0.005652508 0.0026575967 -0.00010418185 0.0023530957 0.008927015
一样 -0.0025451593 -0.0024971336 -0.005650354 0.0021828485 0.003129367 0.0033844174 -0.0083963545 -0.0058327587 -0.0034702402 0.0032884392 -0.004693222 0.0033682513 0.006635515 0.0002697835 -0.0048413696 0.0036875661 -0.0053061177 0.0009834309 0.0020479537 0.005927461 0.006908692 -0.00036472201 -0.0008734756 -0.007332151 -0.0037601418 0.0029148003 -0.0012360818 -0.007922687 -0.0066031166 0.0046434067 0.0050601736 0.00075454864 0.0054744715 0.0011803109 0.0042385 -0.0044045877 0.0036155225 -0.00023868916 -0.005613815 -0.005966204 0.0045110625 -0.005222896 0.0005712454 -0.0067810207 0.0009433557 -0.0035567614 -0.004193818 -0.004833859 0.006075627 0.0048129214 -0.0071967156 0.009615449 0.0002779301 0.00058146473 0.007257344 -0.0018787323 0.0015150342 0.006475325 -0.0030968303 -0.004747802 0.0023696783 -0.0046866382 -0.0004102512 0.0075580887
开始 -0.005057672 0.004168555 0.0016283641 0.0005697404 0.006333915 0.0053139334 0.0022919215 -0.0010867527 -0.0010790105 -0.0063923406 0.0015328068 -0.00594187 -0.0015559682 0.00026631478 0.00608996 -0.004676778 0.004797744 0.003613059 0.0025261068 -0.00075377943 0.009241996 -0.0010517989 0.001526974 -0.0034427077 -0.0035882315 0.003629762 0.0061680656 -0.006300364 -0.004474892 -0.006306308 0.0039183823 -0.007885039 0.005323642 -0.0067728986 -0.0055328384 -0.0036545729 0.0003911246 -0.0060675577 0.0067751785 0.0069192294 0.00072303595 -0.0044942787 0.0003133984 0.0003545477 0.0052528395 0.0010378949 -0.0040738173 0.0013243656 0.005847908 0.0013611427 0.0015391981 0.0045515415 0.002866342 -0.0051178746 0.0027718944 0.00681699 -0.0019825425 0.002065879 0.0073161265 -0.0067672427 -0.0041898736 -0.0014191578 0.005909064 -0.000464489
里亚诺 -0.0076359306 0.0035360474 0.0057628076 0.00278001 0.003432218 -0.0020061163 0.0040586093 -0.0011988496 -0.008344801 0.003536282 0.004762907 0.0012840842 -0.0038308054 -0.0030236903 0.009182865 -0.007924117 -0.0014941628 -0.0044153207 0.007674604 0.00010044538 0.0031661182 -0.005631615 -0.0047819596 0.0077113686 0.003976774 0.0027915756 0.004761295 0.0042523663 -0.001987879 0.0041086553 -0.004087438 0.002592471 0.00058387214 -0.0066112657 0.00707044 -0.007813078 0.002032192 -0.006293679 -0.0012655549 -0.005371359 0.005776826 -0.0057383943 0.007170687 0.0011856945 0.002554012 -0.008504593 -0.0037184348 0.0010391143 0.0024218468 -0.0009376368 0.008475416 0.003951475 -0.0011276834 -0.005784097 -0.0033601297 0.005509831 -0.0018902327 0.0068322937 -0.005752107 0.00022939291 -0.002047793 -0.007412828 -0.0016762951 0.0037358967
最 -0.0051150047 -0.0035431017 0.001489913 0.005056805 -0.0033546071 -0.000832695 -0.0001665424 -0.0020550173 0.0031038274 -0.0021481786 -0.0021728997 -0.005099161 0.006238165 -0.006340778 0.0014504886 -0.006845164 0.000113441805 -0.002185782 -5.0038725e-05 0.0007671315 -0.004074151 0.00016095738 -0.0042466996 0.002448559 0.006925296 -0.0016988503 0.005205647 -0.006572003 -0.0033246512 0.00011985981 0.0026363824 -0.0024015645 0.0017657108 0.0052989013 0.0048333043 0.00087320356 0.005313968 0.004566481 0.00076016557 -0.004154263 -0.0013683904 0.0041215154 0.0007830415 -0.0054909224 0.0012322859 0.0014740052 0.0060123308 0.0055224476 0.010612784 -0.003899703 0.0039605633 0.010458225 -0.007623043 0.0071380124 0.0017388215 0.003954847 0.0075468607 0.00256426 0.00818605 -0.0027433897 0.0016927874 0.005857662 0.001240364 0.007238672
带 -0.0078882435 0.0044430513 0.0042732735 0.0034331277 -0.0039043683 0.0070358603 0.0024072418 0.0032297769 -0.0097640855 -0.004491357 0.0043937108 -0.00341016 0.006720443 -0.006620055 -0.0052823275 -0.009245664 -0.0042590993 0.0041036634 0.0012544802 0.004671159 0.010499267 -0.0066630743 -0.006203207 -0.006356901 0.0026406778 -0.002475035 -0.0013880316 -0.009417656 -0.0010329294 0.0074667935 -0.0030971041 -0.006758864 -0.0016221447 -0.0057910765 -0.0028413874 -0.004468113 0.007839767 0.002235456 0.0014385269 0.0025158871 0.006825187 -0.009508727 0.00611326 0.006510755 -0.00033875264 -0.0097051235 0.0025534187 0.0037579935 -0.00044993137 -0.0051252944 0.00014582093 -0.0012600174 0.0044170315 -0.0060035177 -0.0009690368 -0.0032666058 -0.001697015 0.012073608 -0.00404466 -0.0062957434 0.0008809345 -0.0022643397 0.008766778 0.007224142
直到 -0.005996514 0.0001350795 -0.0038098209 0.003960576 -0.0032636276 -0.0017870853 0.003679042 0.002969158 -0.008797983 -0.0034453885 -0.00784122 0.0017231766 -0.0048522926 0.0015586693 0.0049414434 -0.01086951 0.002334671 0.007189338 -0.00022837287 -0.00889411 -0.0013729207 -0.00013370614 -0.0072110286 0.0073293187 -0.00085180026 0.005740652 0.0009311512 -0.009105103 -0.007850021 -0.0014292265 0.0040682484 3.4913915e-05 -0.0027533122 -0.0002663778 -0.0064374227 0.0069915014 0.005446601 -0.0056150015 0.0033772537 0.0065114712 0.006044362 0.0023328701 -0.0047191097 -0.003797874 -0.0013804386 -0.002977796 -0.0032545037 0.0031244818 0.013013368 -0.0033485964 0.0062264754 0.0045421403 -0.0009760519 -0.0021279727 0.0072814226 -0.008970019 -0.0040446217 0.010588371 -0.005255631 0.0025391357 0.0008580043 0.0074906456 0.0048601995 -0.002254798
那里 0.004291671 -0.004455221 -0.008628778 0.0013621749 -0.0011369949 0.00803022 -0.0023421305 0.0036905874 -0.009530039 0.006122024 0.00638228 -0.0018574576 0.0019079617 0.0023048373 -0.0018324901 -0.0056429403 0.0036546225 0.0023311407 0.0020317796 -0.0015672438 0.0010860545 0.0047119055 0.00047612208 -0.0006201498 0.0068980698 -0.0038979135 -0.0003468193 0.0042936048 -0.0076629655 -0.0037759827 -0.00016816425 -0.0024569817 0.0014536271 0.00032170728 -0.005816877 -0.004915302 0.0061936816 -0.00024473635 -0.0032077595 -0.0020610625 0.0010901561 0.0059049483 -0.0037193918 -0.002110863 0.006964802 0.004581954 0.0048185857 0.0049327514 0.011356463 0.0013291738 0.0002359958 -0.0003321323 -0.0042844503 0.0036191775 -0.0065987227 0.0057400656 0.0027098085 0.003653801 0.003433531 -0.0010653948 0.009177157 0.0034380767 -0.0054108347 0.008656302
走 0.005082199 -0.0038701766 -0.0028097506 -0.0067462716 0.0010733407 0.0064585838 0.0051484853 0.0031482968 -0.0033802113 -0.0020014376 -0.00826782 0.0005203981 -0.0018713877 0.005171158 -0.0020259686 -0.0029640405 -0.004230454 0.008565273 -0.005018384 0.0062220944 0.0087807225 -0.0051983376 -0.0070281276 -0.007193324 -0.0037733081 0.0057886844 0.002118799 -0.005691767 0.005343763 -0.0025665716 -0.0013046124 -0.005792613 0.006666064 -0.0038735727 0.0060238447 -0.0023804363 -0.00035836062 0.0011532578 -0.003794871 0.0080483025 -0.0020392064 -0.0024532534 0.008427081 0.0009116111 0.007392299 -0.0063693146 0.0009787071 -0.0040783803 0.006578657 0.0011894375 0.0050971513 -0.0008170868 0.00030790834 0.008243802 0.0033265022 0.001997669 -0.0009414667 0.00060833624 0.0077746934 -0.0025728513 -0.0028823186 0.004710883 0.0038007158 0.0077677686
炼金 0.0071107186 -0.0032618502 0.0026433226 0.006171879 0.0048535382 0.0048078285 0.003156774 0.0071385438 0.0015617489 -0.006080924 -0.0035408668 0.0040672035 0.0065512313 -0.0011322199 0.0007707587 -0.0074120797 -0.0009795156 0.004704487 -0.0057002343 0.00023849367 0.0046188626 -0.0015846761 0.0054575345 0.004811611 0.0030543872 -0.0031093608 0.001181886 -2.086758e-05 -0.0017656012 -0.003311629 0.0013315 -0.004232224 -0.0010106541 0.0070484104 0.006995142 -0.001192349 0.008234132 0.0035327268 -4.1679596e-06 0.006363679 0.0039598006 0.00063481444 0.007849118 -0.008094819 -0.00459585 -0.008438618 0.0058975667 0.0057324246 0.00018999947 -0.0015029677 0.0057073603 0.0057258955 0.0075911656 0.0075126085 0.0026228062 0.0057642814 0.00041091177 -0.00014702967 0.005864292 -6.316773e-05 0.00025698676 -0.0036423765 -0.0020472477 -0.0031586317
甚至 -0.0024355026 -0.007934966 -0.0004691205 -0.0056758495 0.0076615526 0.0039339457 -0.0055083437 -0.0059214276 0.0013411125 -0.0013602179 0.0032448794 -0.0015020352 0.007855488 -0.0064220973 0.0040909895 -0.0090999855 -0.0018260838 -0.0024114829 -0.0024031776 0.0014322322 -0.0029980312 0.0048039695 -0.007527709 0.0010894326 -0.0036327278 0.007434877 -0.00028905668 -0.0078406045 -0.0051923348 0.0010617633 -0.0048617776 -0.004832834 0.0035970996 -0.0054973355 -0.0064987587 0.0038673882 -0.001244298 -0.0026462707 -0.0031807735 0.0064628017 -0.0055990433 0.0019546866 0.0010247647 -0.0011891813 0.0012797809 -0.006963779 0.0009806392 -0.0009966795 0.007905839 0.0016887338 0.0012313963 0.006162188 -0.002431783 -0.0022128588 -0.0036740452 0.00413865 -0.00023895751 -0.0003664661 0.0022709935 0.0050198226 -0.001238683 0.00046711726 0.0031733012 0.0055672033
然而 -0.004326438 -0.0014036635 -0.001736191 -0.006329843 0.006817289 0.0080592185 -0.0046034236 -0.0035044388 0.00052576343 0.0038400358 -0.0034845187 0.0037346093 0.0017532773 -0.0032591007 0.003760624 -0.0057750256 0.0002822314 0.0016522886 0.0013722989 -0.0023202277 0.0044649853 0.004391108 0.0041198754 -0.0045208666 -0.0021108368 -0.0075323605 -0.00032825512 -0.00040653237 -0.0026589152 0.0035383082 -0.0034371172 -0.0055934843 0.004922956 0.0022598302 0.0045075407 0.0042236703 0.006848041 0.0036319029 -0.0013456693 -0.0003039868 0.0040085996 -0.0059213215 -0.0012415887 0.006286477 0.0017744051 -0.0017446164 0.0057044453 -0.0028571459 -0.004759969 0.005669841 -0.0035360525 -0.0065510953 0.0032418738 0.007920745 0.0058354475 -0.0013197738 -0.002646907 0.0066181095 0.0008090364 6.2210325e-05 0.008152913 -0.0046458975 -0.0017904006 -0.0002472382
拿 0.00015620289 0.0052998275 0.0008596308 0.0036196485 0.0025904414 -0.006327595 0.005064629 -0.00303064 0.00055850885 0.0026603672 -0.006590936 -0.0018733863 0.005281994 -0.004679832 0.008115372 -0.005722706 0.0031994544 5.0884206e-05 0.0044397986 -0.004874561 0.005152997 0.004882607 0.0042099324 0.0035372586 0.008290524 -7.601919e-05 -0.0017514518 -0.007276233 0.0037799666 0.005005419 -0.0069908504 0.0006897594 -0.0019193381 0.0053463103 -0.00033014562 -0.00199009 0.0051822676 -0.007512192 -0.0050945613 -0.0040815515 0.00033179024 -0.0019567027 0.00064140675 -0.003825973 -0.0034334294 0.0015735358 0.001053736 -0.0051316656 0.005597763 -0.0036334714 0.005551505 -0.004661703 -0.0032888975 0.003238581 0.0024239933 0.0057407916 -0.0034287046 0.009423437 0.008294488 0.004532609 -0.0016139529 0.00338975 -0.0057113715 -0.0014240431
妻子 0.00049281155 0.0051700803 -0.0058174636 -0.0036037746 -0.0017940473 -0.0011540742 0.0041830554 0.005291451 -0.0076776696 0.0013939411 -0.0076924404 0.0020540426 2.6398357e-05 -0.004243291 0.008265181 -0.0034178386 0.00083453255 -0.0012720381 0.007578644 0.0042742817 0.0027127138 0.0031269274 -0.009302112 0.0062413807 -0.0041121216 -0.0069959876 -0.008497687 0.0065759276 -0.0055335877 0.0027059424 -0.0059032487 -0.0060394886 0.0065424596 -0.005458821 0.0018626031 -0.005231909 0.002666253 -0.0046250154 -0.0011814993 0.0026443747 0.0017082631 -0.0037205857 0.000111669346 0.006793776 0.006506959 0.002339091 -0.007669306 0.007479964 0.008710637 -0.0005526666 0.007174074 0.00030546443 0.0072971703 0.0076477416 0.0013532444 -0.006429588 -0.0027225204 0.003293347 -0.0037708953 -0.0017171097 0.0026247697 -0.00699282 0.0085044205 -0.00365974
丈夫 -0.0002946442 -0.0049768817 -0.0031377901 -0.001823063 -0.004611757 -0.0023903437 0.0027921011 -0.007598824 -0.0019692818 0.0008162422 0.0006721337 -0.003056935 0.003625915 0.0024343636 -0.00457318 0.00034100763 0.00050197396 -0.0030002173 -0.000456835 0.0030854323 0.009366755 0.0061323927 -0.0027539814 -0.0005210864 0.0049217553 0.0055933036 0.0010626189 0.0055708573 -0.0072473614 0.0050695166 -0.0029504178 0.0057810494 -0.0040642815 -0.0032066808 -0.0047787256 0.0006419993 0.0045690797 -0.007971294 -0.0018929619 -0.0014306882 0.0019123312 -0.0028053236 -0.0006025507 0.0033523738 -0.005089963 0.0042942506 -0.0010111432 0.0073190434 -0.0029597604 -0.007754441 -0.0052643735 -0.0038348415 -0.0037542991 0.007121182 0.0020079731 -0.00051697803 0.0023553674 0.009019229 -0.0026462795 0.00526 0.0015440345 0.00041904018 -0.0013263193 -0.0029178662
一 -0.0033070222 0.004756968 -0.00029594367 -0.002339332 -0.0041406467 -0.00031992173 -0.0042102886 0.00052281766 0.005793654 0.002588067 0.00029555676 -0.0032429588 0.007135535 -0.004398515 -0.0067585534 0.0031110568 0.007356966 0.0009842992 0.0048340494 0.005073558 0.0047948253 0.00667582 -0.0050941445 0.0035469464 0.0064162267 0.006419679 0.0037856407 -0.0053539714 -0.00036295987 -0.0021582323 0.002622253 0.0027137795 -0.002254625 0.0006494633 -0.00043117543 -0.0061260103 -0.007268877 0.0034484984 -0.008242961 -0.0045581446 0.0065812757 -0.0013522762 -0.0037713386 -0.0039877947 -0.0012850374 0.0015461593 -0.003273335 0.0069142603 -0.0050722663 0.0007534327 0.0039387075 0.0040444415 0.007757421 -0.0028298825 0.0013977281 -0.0009502953 0.0070089223 -0.00296506 -0.006216249 0.004232529 0.005685553 0.006488193 -0.00048519735 -0.00096753315
放大镜 -0.0044441256 -0.007218867 0.0013054155 0.0065777632 0.0038083533 -0.005509135 -0.0056989496 -0.0017193196 -0.0035709052 -0.0054770173 -0.0015378693 -0.00610671 0.0034156374 0.00496309 -0.00336424 0.004144301 0.006357865 0.0036441667 -0.0018784268 -0.002137336 -0.0018219007 0.004254262 -0.008037139 -0.0023667112 -0.003269908 -0.0030824584 -0.0016792162 0.003670511 0.00053976383 -0.0015658406 -0.0076864143 -0.0012307342 -0.0075842133 -0.0036479873 0.0054740855 0.0053622713 -0.0036291732 -0.0052633397 0.0047242916 0.005271583 -0.003556063 0.006083158 0.0033445307 0.0043659997 -0.0061713937 -0.0049012145 -0.006593319 -0.001216297 0.0044567557 -0.0023708188 -0.005545339 0.008352588 0.007326063 0.005229966 -0.004176398 -0.008088888 0.0070136283 -0.004154641 -0.0015995463 0.004068798 0.003719315 0.006447888 -0.0025365886 -0.0012733379
村子 0.0003426998 -0.0069811437 0.0022296992 -0.0016061375 0.0017592476 -0.002961487 -0.00206646 -0.0076360623 -0.008138015 -0.004866702 -0.00519036 0.0028485882 -0.0021741418 -0.0026469307 8.343924e-05 0.005101262 -0.0063656853 -0.0014487422 0.0015656119 -0.005318553 -0.0009861594 -0.0052675805 0.0051493077 -0.000489007 -0.0004096781 0.001693984 -0.0030161317 0.0026443647 0.0007444389 0.0065447404 -0.007459184 -0.0050322143 0.0077034654 -0.0072826697 0.0013713043 -0.005315981 -0.0024177842 0.00733301 -0.007129486 0.0019147086 0.0068688123 0.0028960006 0.00525328 0.006397588 0.005824997 0.0024618804 -0.0047197784 0.0045616655 0.009240778 0.0046409946 -0.004660152 0.0057574427 0.0054970514 -0.0073394 -0.007233638 -0.0040058712 0.00094294216 -0.0027528584 -0.0039444105 -0.0006257085 -0.006433715 0.007693665 -0.0026576398 -0.0021043885
出 -0.0039445492 0.006121533 -0.008074537 -0.0024401469 0.0050950176 -0.0070944694 -0.0011892271 0.0072770882 -0.004021052 0.00053580815 0.002741328 0.0007801563 0.008161205 0.00071341806 -0.0011233197 0.0021000097 -0.006715658 0.0070880926 -5.5657933e-05 -0.0008345737 -0.0020745345 -0.0065868837 -0.0063580284 0.0073488313 -0.0017015643 0.005254267 0.0019179862 -0.0065683858 -0.0005262587 0.006609879 8.140635e-05 -0.0013600937 -0.003301383 0.0043763123 0.0060174586 -0.007274887 0.006763563 0.0011483115 -0.007488645 0.008808441 -0.002251733 -0.0035626218 -0.006264869 -0.003421564 0.0045659477 -0.004857467 -0.0014732607 0.0016422699 0.0019246959 -0.0071434695 -0.0068159425 0.0042569074 -0.003217402 0.008336122 -0.0015270913 0.005648202 -0.0037223133 -0.0035572837 0.0033753242 0.005374177 0.0003044813 0.0020457285 -0.0047457134 0.0070307236
最后 0.006392828 -0.0057550985 0.006323772 0.003284631 -0.00795201 0.0015979868 -0.0074088937 -0.005348423 -0.0060587213 0.0006922822 -0.0064090323 0.0034933884 0.0055462457 -0.00521206 0.0002744015 -0.00059900235 -0.0013624459 0.005819716 0.005872761 0.0034905018 0.0058906903 -9.95276e-05 0.0013556338 0.006006704 -0.004466706 -0.0048493375 0.0013540245 -0.008148607 -0.005653852 0.001250711 0.0018363695 -0.0048795016 0.0024554655 -0.0036304134 0.0045876396 0.0007928458 0.0073911757 -0.001550702 -0.004020835 0.0038363284 -0.0058579682 0.0020379082 -0.0047961734 -0.005548381 0.0011708655 -0.002366988 0.005767684 0.0018726587 0.0025857114 -0.0029547699 -0.0031801644 0.0008431737 -0.006486633 -0.0047796774 0.0049113845 0.000537356 0.001269682 -0.004468711 0.0030234256 -0.0077476674 0.0019798705 0.0010245251 0.0022256675 0.008026652
一直 -0.0002599469 -0.007891554 -0.0063440665 0.0017982026 0.00083714403 0.008108877 -0.00049043825 0.0029834504 -0.0035895852 -0.003071707 0.0031460267 -0.004726401 -0.0018620933 -0.0031894967 -0.0038561309 -0.0047787144 0.0070695137 0.00316639 0.0044696745 -0.0019709326 0.008660227 0.003721007 -0.0024434864 0.00268924 -0.00045233968 0.004206785 -0.0060132844 -0.0063709915 -0.0032008272 0.0050575323 0.0019434477 -0.0068688225 -0.006059718 -0.0022238954 -0.004767536 -0.0013666347 0.002121942 0.00014917286 -0.0049279984 0.006550271 0.007142902 0.006268179 0.000226158 -0.0052447794 0.0010499412 -0.005264955 -0.0013721384 -4.0135244e-05 -0.0001695771 0.006387014 0.006949703 0.009899571 -0.0022230588 0.004941282 -0.006537347 -0.007222382 0.003238498 0.00043158722 0.0044242404 0.004331706 -0.00016674268 0.0029402731 0.0048402995 0.0036654323
为了 -0.0025971967 0.006058676 0.0023525108 0.0012634116 -0.0004924123 0.0025052193 0.006679799 0.0008198831 0.0013687431 0.0065403534 -3.446614e-05 -0.0005287761 -0.00039766633 0.002589258 -0.0009500002 0.0058889845 0.005364572 -0.0024522427 -0.00079895335 0.006225027 0.00855343 0.005776861 -0.008300484 -0.007510869 -0.00024216103 -0.005905333 0.00712506 -0.0024973399 -0.00065975444 0.0030941935 0.003953498 0.0032669983 0.0035415508 -0.00069202896 -0.0021154464 -0.0025397213 -0.0049923067 0.0009791943 0.0020134163 0.007397521 -0.0072119464 0.00019716703 -0.004486372 0.0031820508 0.0077160206 0.0026622445 0.0011306838 0.007395428 -0.003461771 -0.0037298151 0.006772148 0.007911468 -0.005423121 0.006974678 -0.005183116 0.0015757395 0.0064081117 0.008538714 0.0015555661 -0.003658614 -0.006773442 -0.0025111442 -0.0052128234 -0.0066105663
山脉 0.001379061 -0.006531881 0.0018819117 0.004484307 -0.0031734053 -0.006518126 -0.001142936 0.001955028 -0.007754779 -0.005048157 -0.00438323 -0.006186643 -0.0012810589 -0.006818559 -0.0007129839 -0.006793416 0.0021155803 0.0063316426 -0.0038316266 0.005518522 0.00080799666 0.0009366523 0.0040771775 -0.001952954 -0.0038217583 -0.005593758 -0.007231628 -0.007648308 -0.00049166626 0.0068408656 -0.008981215 0.00621036 0.0043612197 -0.007581482 -0.0013516344 0.005197809 -0.0034541534 0.000964439 -0.00086381 0.007613747 0.0058322004 -0.008031485 0.00043039318 -0.008240093 0.0020646302 0.00016334605 0.0051735663 -3.226122e-05 0.010440888 0.0044497796 0.0032205903 0.010765402 0.0026067088 0.0035583724 0.0016778435 0.00040944884 0.003636899 0.004136011 -0.0016483347 -0.0011584293 0.004164269 0.004808886 0.0019785448 0.0018723983
所有 0.000993886 0.0067145373 -0.0049929046 0.004513843 -0.004515532 0.003993356 0.0058381553 0.0042579505 -0.008078806 0.0060389154 -0.0047353357 0.0037318184 0.0055457084 -0.0048925434 6.1446015e-05 -0.0038987654 -0.003347867 0.0070078145 -0.00072622014 -0.0051613287 0.0089172805 -0.0029312554 -0.005647658 0.00031055955 0.006308121 -0.006493852 0.0029112985 -0.0072228583 -0.0060955235 -0.004674454 0.0022551375 -0.0025076668 -0.0064100204 0.006980451 -0.0074409973 -0.006115778 0.0037231373 -0.0020015344 -0.007125038 -0.0049063014 -0.00367347 0.00010632804 0.0045234016 -0.0074996185 -0.004292525 -0.004904502 0.007354115 0.005823509 0.009532986 -0.0025642226 -0.0015268684 0.009045863 0.00028222002 0.0015064054 0.004883297 0.005709794 0.00063551794 0.0026913313 -0.0047823098 0.0069135395 0.006827093 -0.0064222775 0.0007709505 0.00963051
你 -0.0050226576 0.0031294948 0.0021590795 -0.005729916 -0.007307443 -0.0026063076 -0.004521952 -0.0076215235 0.0030161857 0.008568049 0.004424577 -0.0036181947 0.0052190116 -0.00027988863 -0.0041655116 -0.0099599175 -0.0068155923 0.0008748641 0.0053449613 0.004042452 -0.0009115775 -0.008718745 0.0025118724 -0.0043263426 0.005354805 0.0013698278 -0.00583881 -0.008033899 0.005463123 -0.0045652324 0.0023736812 -0.0048813587 -0.0072455253 0.00012687841 0.0035479888 0.0003342656 0.0051126974 0.00015267846 0.0030723298 0.0029200134 -0.0076352204 -0.0062656277 0.0036528304 0.0058030244 0.0016765452 -0.0036728065 -0.0033035881 0.0012527575 -0.0008599848 0.003949023 0.0057807895 0.0050511947 0.0014442386 0.004328923 0.0086562885 -5.800738e-05 -0.00013728093 -0.0024648698 0.0048668534 -0.006807081 3.0179954e-05 0.0069497814 0.003679053 -0.0036707993
